%YAML:1.0
---
opencv_ml_svm:
   format: 3
   svmType: C_SVC
   kernel:
      type: LINEAR
   C: 2.6699999999999999e+00
   term_criteria: { epsilon:1.1920928955078125e-07, iterations:1000 }
   var_count: 94
   class_count: 14
   class_labels: !!opencv-matrix
      rows: 14
      cols: 1
      dt: i
      data: [ 1, 2, 3, 4, 5, 6, 7, 8, 9, 10, 11, 12, 13, 14 ]
   sv_total: 91
   support_vectors:
      - [ -2.25763708e-01, -3.33889015e-02, -5.80848679e-02,
          -5.45705557e-02, -2.43365407e-01, -3.77604775e-02,
          -4.30418886e-02, -4.52591851e-02, -7.32663274e-02,
          -4.30418886e-02, -4.30418886e-02, -4.45409380e-02,
          -1.02986492e-01, -4.30418886e-02, -4.30418886e-02,
          -5.30977063e-02, -3.41821723e-02, -4.30418886e-02,
          -4.30418886e-02, -1.04862571e-01, -4.07597283e-03,
          8.15293014e-01, 6.01205587e-01, -1.97249688e-02,
          -2.93896347e-02, -3.84421945e-02, -8.85953233e-02,
          -3.88235189e-02, -1.37993982e-02, -2.77686343e-02,
          3.47816050e-02, -3.47463191e-02, -5.12990914e-02,
          -4.61133644e-02, -1.05049081e-01, -3.59041505e-02,
          -8.19156878e-03, -2.67796889e-02, 3.39672752e-02,
          -9.02828854e-03, 6.75177500e-02, -3.56420130e-02,
          -4.37844843e-02, -2.57808194e-02, -2.31367885e-03,
          -2.61246152e-02, 3.21757868e-02, 5.67535113e-04,
          1.14914574e-01, -1.91035159e-02, 3.12748142e-02,
          -2.95570139e-02, -6.19017053e-03, -2.56815739e-02,
          2.72817146e-02, 4.97738039e-03, 1.02801263e-01,
          -1.16866957e-02, 5.38083315e-02, -4.69457507e-02,
          -2.21122298e-02, -2.70879716e-02, 2.51819268e-02,
          2.96687311e-03, 1.26895636e-01, -1.09936940e-02,
          6.34177998e-02, -4.85864878e-02, -2.25547310e-02,
          -2.94580180e-02, 2.34803818e-02, 9.48546082e-03,
          1.61603272e-01, -1.00630624e-02, 7.42444023e-02,
          -4.07333560e-02, -2.09146999e-02, -2.88747326e-02,
          2.58190855e-02, 1.05478466e-02, 1.45034730e-01,
          -2.17901785e-02, 1.83320721e-04, -3.71998847e-02,
          -1.48921432e-02, -2.67836452e-02, 3.55815664e-02,
          3.13827768e-02, -2.73477107e-01, -3.18191922e-03,
          5.47699220e-02, 6.27426654e-02, 6.50695786e-02, 6.26940951e-02 ]
      - [ -1.29929557e-01, -1.09947383e-01, 3.08079183e-01,
          -8.91397297e-02, -3.08722649e-02, -1.31758377e-01,
          -1.00013241e-02, -7.40500074e-03, -2.49579772e-02,
          -7.37737352e-03, -6.43844437e-03, -6.91003166e-03,
          -1.51115945e-02, -6.45033224e-03, -6.43844437e-03,
          -1.30441450e-02, -6.67775329e-03, -6.48572063e-03,
          -6.43844437e-03, -3.62193733e-02, 3.87888431e-04,
          3.35576147e-01, 7.56006362e-03, 1.74714420e-02,
          -2.83044204e-02, 2.99217645e-02, -7.93939829e-03,
          -3.21084470e-03, 1.01192975e-02, 1.12706916e-02,
          1.32354687e-03, 1.36559615e-02, -3.07891201e-02,
          2.88290326e-02, -8.09886958e-03, -1.45897537e-03,
          1.13311028e-02, 9.89398360e-03, -1.99465663e-03,
          8.86466075e-03, -4.35928218e-02, 2.49613523e-02,
          -1.81058291e-02, 3.75301065e-03, 1.85795520e-02,
          1.25065669e-02, -6.01841835e-04, 4.64904308e-03,
          -5.52693307e-02, 2.11777501e-02, -2.92534232e-02,
          9.21945181e-03, 2.32329667e-02, 1.74702089e-02, 4.86574601e-03,
          3.98155674e-03, -6.37392700e-02, 1.77960694e-02,
          -4.29354124e-02, 1.26131671e-02, 2.82346904e-02,
          2.11617351e-02, 9.46822390e-03, 1.19418721e-03,
          -6.80243447e-02, 1.65741239e-02, -4.64612357e-02,
          1.36939650e-02, 2.89627369e-02, 2.07970068e-02, 9.84897371e-03,
          3.13150953e-03, -6.13676645e-02, 1.90598816e-02,
          -3.82382236e-02, 7.74976658e-03, 2.21654102e-02,
          1.84243508e-02, 8.72302148e-03, 9.87873878e-03,
          -4.40669879e-02, 2.44453978e-02, -2.19559036e-02,
          -2.16717890e-04, 1.38477590e-02, 1.49339791e-02,
          5.84189082e-03, -2.62395712e-03, 4.43375148e-02,
          -8.17539357e-03, -8.12000688e-03, -8.53272434e-03,
          -8.35201051e-03, -8.53341259e-03 ]
      - [ -1.15687773e-01, -8.92562121e-02, -1.05613522e-01,
          -4.77460027e-02, -1.74008943e-02, -3.30534726e-02,
          -3.62744816e-02, -3.65153179e-02, -3.41592766e-02,
          -3.62744816e-02, -3.62744816e-02, -3.67941335e-02,
          -4.58941944e-02, -3.62744816e-02, -3.62744816e-02,
          -1.18935313e-02, -8.28042701e-02, -3.62744816e-02,
          -3.62744816e-02, 7.77808428e-02, -1.24057844e-01,
          5.31377554e-01, 4.25639421e-01, -1.88534781e-02,
          2.19471995e-02, -2.48934086e-02, 2.69009247e-02,
          9.09778774e-02, -3.60519961e-02, 9.27001908e-02,
          -2.21137125e-02, -2.68768668e-02, -3.93510237e-02,
          -2.71769557e-02, 3.56243155e-03, 9.13022682e-02,
          -3.23500335e-02, 9.43845436e-02, -1.92414224e-02,
          -1.71856210e-02, -8.39544553e-03, -2.99292188e-02,
          -2.95129288e-02, 1.09608397e-01, -9.88192484e-03,
          1.01072736e-01, -1.46713527e-03, -1.98687073e-02,
          -4.54326235e-02, -4.92929555e-02, -1.50526062e-01,
          1.22286201e-01, 1.21006053e-02, 1.06371328e-01, 1.69478282e-02,
          -5.69786355e-02, -2.13954762e-01, -6.37393296e-02,
          -2.21560791e-01, 1.20068692e-01, 1.37317544e-02,
          1.07360102e-01, 2.00246815e-02, -4.52603474e-02,
          -1.67133942e-01, -6.16601594e-02, -2.11750746e-01,
          1.21439308e-01, 1.79186445e-02, 1.05033390e-01, 1.58499051e-02,
          -1.97251141e-02, -2.20032725e-02, -4.03038636e-02,
          -9.24787149e-02, 1.15335092e-01, -3.93783581e-03,
          1.02608413e-01, 5.03340829e-03, -9.66647640e-03,
          3.98887508e-02, -2.30030939e-02, 2.54896861e-02,
          1.02060795e-01, -2.29632687e-02, 9.71572027e-02,
          -1.46404728e-02, 7.36945719e-02, -4.11495805e-01,
          6.70184866e-02, 6.68590590e-02, 6.81164116e-02, 6.76903278e-02,
          6.81169778e-02 ]
      - [ -3.91089767e-01, 2.91726798e-01, 5.22176683e-01,
          -7.37866908e-02, -8.49441513e-02, -6.91260695e-02,
          -6.91260695e-02, -7.89967626e-02, -8.04230571e-02,
          -6.91939816e-02, -6.91260695e-02, -1.98555201e-01,
          -5.42048998e-02, -9.91844907e-02, -6.91260695e-02,
          -4.50158685e-01, 2.33674771e-03, -2.49476582e-01,
          -6.91260695e-02, -7.98838139e-02, 8.74632783e-03,
          8.88624847e-01, 5.41917145e-01, -3.09677012e-02,
          -1.07804937e-02, -2.94428896e-02, 6.07052492e-03,
          -1.10517114e-01, -1.09738410e-02, -7.92379975e-02,
          2.54610702e-02, -1.13875233e-02, 9.66292322e-02,
          -1.79691929e-02, 7.79783279e-02, -1.06907919e-01,
          -6.96874131e-03, -7.98719600e-02, 7.69812753e-03,
          4.02415097e-02, 3.37371647e-01, -3.83068970e-03,
          1.54286250e-01, -9.38930959e-02, 1.47276674e-03,
          -7.54648075e-02, 5.21286158e-03, 2.82785632e-02,
          2.51824170e-01, -2.66742110e-02, 1.37388718e-03,
          -7.84507245e-02, 2.37192716e-02, -8.36035088e-02,
          -8.14959500e-03, -4.30937409e-02, -1.16388209e-01,
          -4.00723182e-02, -7.88698047e-02, -8.22131485e-02,
          1.50764603e-02, -8.64527300e-02, -9.86812543e-03,
          -1.05000893e-02, 1.02322534e-01, -4.68748398e-02,
          -7.34395608e-02, -7.86504447e-02, 3.05923447e-02,
          -7.56945685e-02, 1.52485389e-02, 2.05142833e-02,
          2.56487727e-01, -1.51678259e-02, 1.21072739e-01,
          -9.30194333e-02, -1.28088007e-03, -6.06011227e-02,
          4.37233299e-02, 9.76737775e-03, 1.82565302e-01,
          -1.78472400e-02, 7.22981170e-02, -1.03906006e-01,
          -3.83626251e-03, -6.51512519e-02, 4.07330729e-02,
          -5.63393906e-03, 3.62623046e-04, 2.52713473e-03,
          1.24073145e-03, 4.52991371e-04, 5.97727951e-04, 4.52698703e-04 ]
      - [ -1.27869159e-01, -1.06355734e-01, -1.26729459e-01,
          -8.04430097e-02, -1.48584247e-01, -6.28552213e-02,
          -6.71590641e-02, -6.71015531e-02, -1.56167582e-01,
          -6.71590641e-02, -6.71590641e-02, -6.71590641e-02,
          2.36215293e-02, -6.71590641e-02, -6.71590641e-02,
          -3.57037373e-02, -1.85915921e-02, -6.71590641e-02,
          -6.71590641e-02, 1.34792730e-01, -2.49021017e-04,
          7.57091224e-01, 5.52417338e-01, 3.55763473e-02, 1.39286906e-01,
          1.64882261e-02, 5.56870736e-02, -1.14874855e-01,
          3.84297632e-02, -1.35289356e-01, -1.79375503e-02,
          1.33844363e-02, 8.19473714e-02, 6.90547144e-03, 2.52119340e-02,
          -1.09069973e-01, 4.46135104e-02, -1.32682890e-01,
          -1.71675999e-02, 2.00746972e-02, 1.04224391e-01,
          6.49080565e-03, 2.62697786e-02, -1.04580507e-01,
          4.77589965e-02, -1.30025133e-01, -1.45270070e-02,
          2.79910937e-02, 1.31892711e-01, 9.14809201e-03, 2.81905774e-02,
          -1.04477473e-01, 4.69910651e-02, -1.28083736e-01,
          -9.24898125e-03, 3.50220725e-02, 1.27159089e-01,
          1.55276889e-02, 4.69470434e-02, -1.07275188e-01,
          4.59748246e-02, -1.24796286e-01, -5.29844360e-03,
          2.21095756e-02, 1.13793239e-01, 1.16145108e-02, 4.99170981e-02,
          -1.08101189e-01, 4.62522171e-02, -1.26746729e-01,
          -6.27225498e-03, 2.25316174e-02, 1.30246893e-01,
          1.42593281e-02, 7.54437819e-02, -1.13716744e-01,
          3.92222963e-02, -1.30695090e-01, -1.17310565e-02,
          2.90823020e-02, 1.48739487e-01, 1.75802149e-02, 7.96648860e-02,
          -1.15107372e-01, 3.68788727e-02, -1.33003324e-01,
          -1.38216726e-02, -3.27838461e-05, 6.42589852e-03,
          -4.74776934e-05, -1.44781114e-03, -1.63505692e-03,
          -1.62780797e-03, -1.63506914e-03 ]
      - [ -3.34428370e-01, -1.72482193e-01, 2.60896206e-01,
          1.43462062e-01, 1.37552798e-01, 1.43378496e-01, 1.43378496e-01,
          1.43378496e-01, 1.45024985e-01, 1.43378496e-01, 1.43378496e-01,
          1.43378496e-01, 1.43431962e-01, 1.43378496e-01, 1.43378496e-01,
          1.43378496e-01, 1.43421829e-01, 1.43378496e-01, 1.43378496e-01,
          -6.19921148e-01, -1.78690279e+00, 9.44285914e-02,
          2.68351942e-01, 1.77880108e-01, -9.03697535e-02,
          1.91965088e-01, -1.06009863e-01, -2.93091059e-01,
          4.58649471e-02, -8.73849913e-02, 1.95585638e-01,
          1.43761337e-01, -1.34133220e-01, 1.74598560e-01,
          -1.51250198e-01, -2.69356221e-01, 7.93479308e-02,
          -9.71701145e-02, 1.71534806e-01, 1.34996742e-01,
          -1.44678071e-01, 1.62741989e-01, -1.60791710e-01,
          -2.36088127e-01, 1.14987798e-01, -8.90292376e-02,
          1.67677060e-01, 1.27799451e-01, -1.34064466e-01,
          1.56499296e-01, -1.58996806e-01, -2.00090304e-01,
          1.46268249e-01, -7.10954815e-02, 1.62872523e-01,
          1.18689626e-01, -1.85736716e-01, 1.48767397e-01,
          -1.86893538e-01, -1.44463018e-01, 1.97340131e-01,
          -5.27505875e-02, 1.77174926e-01, 1.19785525e-01,
          -1.59255594e-01, 1.44051060e-01, -1.90257564e-01,
          -1.51643679e-01, 1.89669713e-01, -4.15165424e-02,
          1.91676900e-01, 9.78599489e-02, -2.28936002e-01,
          1.53940350e-01, -1.60454899e-01, -1.78355500e-01,
          1.54922143e-01, -5.44755347e-02, 1.93968311e-01,
          1.18270688e-01, -1.81985006e-01, 1.68715388e-01,
          -1.45846739e-01, -2.51297057e-01, 9.15426388e-02,
          -7.45658800e-02, 1.91277564e-01, -3.22726965e-02,
          2.26541534e-01, -4.42203358e-02, -3.69493105e-02,
          -3.78955454e-02, -3.73080969e-02, -3.78956199e-02 ]
      - [ -2.40621671e-01, -1.60032570e-01, -1.41033724e-01,
          -2.42771544e-02, -1.26541604e-03, -2.20870711e-02,
          -2.44807284e-02, -2.44807284e-02, -1.72838923e-02,
          -2.44807284e-02, -2.44807284e-02, -2.44807284e-02,
          1.24004772e-02, -2.44807284e-02, -2.44807284e-02,
          -2.44807284e-02, -1.63197108e-02, -2.44807284e-02,
          -2.44807284e-02, -1.49788568e-02, 5.78530692e-03,
          6.08306408e-01, 2.56215155e-01, 7.91760460e-02,
          -2.85494495e-02, 1.10403791e-01, 1.51133062e-02,
          -9.79782939e-02, 3.63041498e-02, -4.20824848e-02,
          2.93630287e-02, 5.36201112e-02, -6.78341016e-02,
          9.68324393e-02, -1.03073390e-02, -8.81902128e-02,
          4.36379798e-02, -3.93215753e-02, 3.07179820e-02,
          3.65196392e-02, -1.11734144e-01, 8.11761096e-02,
          -4.82602976e-02, -7.35799819e-02, 6.22976013e-02,
          -3.15082744e-02, 3.81664671e-02, 2.97001433e-02,
          -1.35186806e-01, 7.46845081e-02, -7.06836581e-02,
          -5.68817891e-02, 7.39342943e-02, -2.30497420e-02,
          4.76648025e-02, 3.88149321e-02, -1.35875210e-01,
          7.66376927e-02, -7.79929310e-02, -5.49119040e-02,
          7.88919553e-02, -1.82994008e-02, 5.35337180e-02,
          3.45519707e-02, -1.27919242e-01, 7.67700449e-02,
          -7.37633631e-02, -5.51362932e-02, 7.69678801e-02,
          -2.27096044e-02, 4.90058400e-02, 4.55702022e-02,
          -9.36964676e-02, 8.86428058e-02, -3.51322815e-02,
          -7.52253979e-02, 5.81100732e-02, -3.01566906e-02,
          4.17978615e-02, 6.30795285e-02, -4.47535254e-02,
          1.01307429e-01, -7.30648637e-04, -9.09970775e-02,
          4.23252732e-02, -3.80873792e-02, 3.52157876e-02,
          -1.54826967e-02, 1.29350260e-01, -2.10567657e-02,
          -2.25882996e-02, -2.34769471e-02, -2.32681390e-02,
          -2.34774500e-02 ]
      - [ -1.11194658e+00, -5.80870330e-01, -8.61685812e-01,
          4.58031744e-02, 1.80167511e-01, 5.47198765e-02, 4.44331877e-02,
          4.47211936e-02, 1.03106759e-01, 4.44331877e-02, 4.44331877e-02,
          4.44331877e-02, 3.45039636e-01, 4.44331877e-02, 4.44331877e-02,
          2.01944143e-01, 2.52627313e-01, 4.44331877e-02, 4.44331877e-02,
          9.80893373e-01, 2.60293305e-01, -3.44547033e-01,
          7.42681026e-02, -7.58874789e-02, 5.57353854e-01,
          -2.06811517e-01, 1.98243931e-01, -3.74990776e-02,
          -6.66994676e-02, -1.95692912e-01, -1.64696947e-01,
          -1.17254741e-01, 4.40490752e-01, -2.10896626e-01,
          1.91189542e-01, -3.30429189e-02, -6.06038421e-02,
          -2.13116586e-01, -2.11017266e-01, -8.98858458e-02,
          5.86586714e-01, -2.15029597e-01, 2.06053287e-01,
          1.31553886e-02, -2.01614276e-02, -2.03549892e-01,
          -2.06900299e-01, -6.39111623e-02, 6.48430645e-01,
          -2.17577949e-01, 1.78429395e-01, 3.57579291e-02,
          -2.13547004e-03, -1.84547260e-01, -1.94132224e-01,
          -1.33541048e-01, 3.23807150e-01, -2.36910701e-01,
          9.59395692e-02, 5.92381693e-02, 3.36888321e-02,
          -1.65360391e-01, -1.73925370e-01, -1.48416847e-01,
          3.41014892e-01, -2.52279311e-01, 6.30640090e-02,
          5.82281463e-02, 3.57592627e-02, -1.56649917e-01,
          -1.38609782e-01, -1.23306379e-01, 5.02608657e-01,
          -2.27172032e-01, 2.22238362e-01, 1.95901990e-02,
          -1.99316349e-02, -1.57255277e-01, -1.13478236e-01,
          -8.00459012e-02, 6.17413819e-01, -2.05911666e-01,
          2.61754066e-01, -3.15660983e-02, -6.44848272e-02,
          -1.60695761e-01, -1.09444238e-01, -5.57175279e-02,
          4.17120099e-01, -7.08496720e-02, -7.06350803e-02,
          -7.35974535e-02, -7.27215260e-02, -7.35985562e-02 ]
      - [ 3.13186944e-02, 3.92761789e-02, 1.90231130e-01,
          -1.94837794e-01, 1.31874662e-02, -1.71730220e-01,
          1.53828179e-02, -2.22917879e-03, -1.32305082e-03,
          1.53828179e-02, 1.53828179e-02, 1.23723680e-02, 3.72613373e-04,
          1.53828179e-02, 1.53828179e-02, 1.63742527e-02, 1.10740671e-02,
          1.53828179e-02, 1.53828179e-02, -3.76628757e-01,
          -3.14197328e-04, 2.47958094e-01, 7.72186220e-02,
          -2.55403183e-02, -3.36510018e-02, -3.26747186e-02,
          -3.21362913e-02, 7.93306604e-02, 2.39254385e-02,
          4.42275256e-02, -1.51541969e-02, -2.23448277e-02,
          -1.50152612e-02, -3.23600955e-02, -2.85712555e-02,
          8.08283761e-02, 2.69704536e-02, 4.46662605e-02,
          -2.11691242e-02, -2.43358761e-02, -3.32570672e-02,
          -3.51678990e-02, -3.56035233e-02, 8.32735896e-02,
          2.78211217e-02, 4.63709496e-02, -2.02263072e-02,
          -3.15843858e-02, -6.04923181e-02, -3.98715772e-02,
          -5.77904582e-02, 8.56259912e-02, 3.26412432e-02,
          4.85760458e-02, -1.36550404e-02, -3.78299281e-02,
          -7.88391009e-02, -4.19304483e-02, -6.80387914e-02,
          8.85605663e-02, 3.91229428e-02, 5.01120090e-02,
          -8.80942214e-03, -2.56957728e-02, -4.85272035e-02,
          -3.68852429e-02, -5.45639582e-02, 8.49897042e-02,
          3.61739881e-02, 5.05120568e-02, 5.02212846e-04,
          -2.16535963e-02, -3.38631757e-02, -3.25047150e-02,
          -4.56329100e-02, 8.20520818e-02, 3.12928893e-02,
          4.80411835e-02, 5.04454598e-04, -2.12445669e-02,
          -3.54627408e-02, -3.19420844e-02, -4.38054129e-02,
          7.82270804e-02, 2.55270638e-02, 4.54134196e-02,
          -7.45866820e-03, 1.82718376e-03, -1.96981709e-02,
          3.17712943e-03, 3.57670826e-03, 3.71816987e-03, 3.68070276e-03,
          3.71830864e-03 ]
      - [ -2.00117409e-01, -9.34821367e-02, 3.38207096e-01,
          -7.13894218e-02, -5.92469238e-02, -6.94733858e-02,
          -7.16199279e-02, -7.16199279e-02, -6.58337995e-02,
          -7.16199279e-02, -7.16199279e-02, -7.16199279e-02,
          -4.18905802e-02, -7.16199279e-02, -7.16199279e-02,
          -7.16199279e-02, -6.59769177e-02, -7.16199279e-02,
          -7.16199279e-02, -5.79089932e-02, -4.61257696e-02,
          9.80787992e-01, 1.68649480e-01, 5.54951355e-02, 3.60789821e-02,
          5.84881455e-02, 3.23364064e-02, -9.14444774e-02,
          2.77124066e-02, -8.89743567e-02, 3.37383375e-02,
          4.25098427e-02, 2.73976251e-02, 5.16038910e-02, 2.27019805e-02,
          -8.05295408e-02, 4.18679230e-02, -8.67448747e-02,
          2.75881030e-02, 2.30214205e-02, -2.77619455e-02,
          3.98806706e-02, -1.97567511e-03, -4.98726740e-02,
          7.74250701e-02, -7.67585933e-02, 3.12559232e-02,
          1.22972038e-02, -7.14560822e-02, 3.03897001e-02,
          -3.32360677e-02, -3.05958837e-02, 9.88000035e-02,
          -6.66057020e-02, 4.01475430e-02, 1.03172893e-02,
          -9.80798453e-02, 2.75465678e-02, -5.99278882e-02,
          -2.98942570e-02, 1.03569657e-01, -5.86283244e-02,
          4.83574644e-02, 4.14567674e-03, -9.62089077e-02,
          2.57808845e-02, -6.11269437e-02, -3.12457476e-02,
          9.56681520e-02, -6.38410598e-02, 4.48212735e-02,
          1.87192019e-02, -3.12422048e-02, 3.38776372e-02,
          -2.93914899e-02, -5.09725511e-02, 6.74529299e-02,
          -7.08244666e-02, 4.49231528e-02, 4.21305932e-02,
          2.77130045e-02, 4.96712774e-02, 1.86366178e-02,
          -8.38947669e-02, 3.27475518e-02, -7.92285651e-02,
          4.36472408e-02, -4.18169163e-02, 3.59941542e-01,
          -5.89439496e-02, -6.31326437e-02, -6.55365884e-02,
          -6.49734885e-02, -6.55379519e-02 ]
      - [ -3.04903723e-02, -1.10420644e-01, 3.54427993e-01,
          -2.11263797e-03, -3.32039297e-02, 5.17999753e-03,
          5.17999753e-03, 3.35755991e-03, -1.22643905e-02,
          5.17999753e-03, 5.17999753e-03, -1.06981641e-03,
          -6.18356057e-02, 5.17999753e-03, 5.17999753e-03,
          -1.25426212e-02, -1.84456497e-01, 5.17999753e-03,
          5.17999753e-03, -2.46166021e-01, -7.51540586e-02,
          2.88688719e-01, 8.18023235e-02, -2.69526732e-03,
          2.72653364e-02, -1.07397912e-02, 8.92623141e-03,
          2.77379528e-02, 9.22424719e-04, 9.94850416e-03,
          -2.25118380e-02, -5.20851975e-03, 1.76017731e-02,
          -1.48383901e-02, -7.97798950e-03, 2.98496541e-02,
          4.16777749e-03, 1.18279522e-02, -1.97450593e-02,
          -1.42898271e-02, -1.56059153e-02, -2.01351382e-02,
          -2.67053116e-02, 3.85565124e-02, 1.35587659e-02,
          1.60716437e-02, -1.54676139e-02, -1.77603308e-02,
          -2.48020682e-02, -2.44075507e-02, -3.93496305e-02,
          4.46439460e-02, 2.02394798e-02, 2.02942193e-02,
          -1.29158599e-02, -2.04450786e-02, -2.37177815e-02,
          -2.46681646e-02, -3.82229500e-02, 4.87941206e-02,
          2.41715275e-02, 2.17895843e-02, -1.44093269e-02,
          -1.46443006e-02, -1.03757475e-02, -2.04861034e-02,
          -2.35241652e-02, 4.49155867e-02, 1.87808610e-02,
          1.79501008e-02, -2.04947218e-02, -9.98933427e-03,
          5.26956748e-03, -1.57242045e-02, -8.84662755e-03,
          3.57267559e-02, 9.41137783e-03, 1.32213859e-02,
          -2.36500017e-02, -2.96816719e-03, 2.48829145e-02,
          -1.10777067e-02, 8.02291837e-03, 2.69122496e-02,
          7.89352634e-05, 1.10022677e-02, -2.41418649e-02,
          -9.91379935e-03, 7.87117183e-02, -1.35875866e-02,
          -1.35415206e-02, -1.39302714e-02, -1.38079645e-02,
          -1.39305592e-02 ]
      - [ -3.80675733e-01, -1.82154134e-01, 2.33833775e-01,
          -2.19255686e+00, -2.03016132e-01, -9.59819928e-02,
          3.52123231e-01, 4.04158413e-01, 3.44081044e-01, 4.09740448e-01,
          4.09740448e-01, 3.94652098e-01, -1.53685883e-01,
          4.09740448e-01, 4.09740448e-01, 5.03098130e-01,
          -4.57399815e-01, 4.09740448e-01, 4.09740448e-01,
          2.66813338e-01, -1.93856752e+00, 5.12248278e-01,
          1.34585798e-01, 5.21331690e-02, 4.78231877e-01,
          -1.81645542e-01, -1.74240828e-01, 3.94934043e-02,
          -1.30568119e-02, -2.35626459e-01, -1.13106743e-01,
          1.80510264e-02, 4.24116731e-01, -2.49011800e-01,
          -4.56307024e-01, 1.32410422e-01, 9.86510217e-02,
          -1.60353631e-01, -8.73471983e-03, -3.43395732e-02,
          2.12590024e-01, -2.99591154e-01, -6.52468860e-01,
          2.43721396e-01, 1.87731728e-01, -1.19669370e-01,
          5.05664647e-02, -4.31592762e-02, 1.46828488e-01,
          -3.04897457e-01, -6.83215201e-01, 2.31559947e-01,
          1.98205784e-01, -1.00109018e-01, 4.72353883e-02,
          -5.09769097e-02, 1.16353057e-01, -2.59383917e-01,
          -4.34987068e-01, 1.92477003e-01, 1.57757029e-01,
          -9.79280546e-02, 3.39379683e-02, 5.91771677e-02,
          7.08294213e-01, -1.75693840e-01, 2.73850840e-02,
          1.03961624e-01, 3.76214944e-02, -1.54537037e-01,
          -4.46568765e-02, 9.12113115e-02, 8.86353672e-01,
          -1.32964343e-01, 2.32148513e-01, 2.86934283e-02,
          -5.10087684e-02, -2.46706292e-01, -1.43869460e-01,
          1.10003367e-01, 8.48210037e-01, -1.31940499e-01,
          1.13314018e-01, -8.82723648e-03, -7.05448613e-02,
          -2.83348680e-01, -1.91518843e-01, -1.59379244e-02,
          1.48500979e-01, -1.06959291e-01, -1.32877752e-02,
          -4.94429376e-03, -2.16193986e-03, -5.21013094e-03 ]
      - [ -2.99858689e-01, 1.59381926e-02, 1.00919895e-01,
          1.77968238e-02, 4.98571992e-03, 1.96311809e-02, 1.89716145e-02,
          1.88149251e-02, 1.09152850e-02, 1.89716145e-02, 1.89716145e-02,
          1.88540965e-02, 9.68304276e-03, 1.89716145e-02, 1.89716145e-02,
          1.68751869e-02, -7.64973834e-02, 1.89716145e-02,
          1.89716145e-02, 1.84241345e-03, -1.85382932e-01,
          2.36804947e-01, -4.41239737e-02, -1.33464150e-02,
          -1.70750301e-02, -1.85744446e-02, -2.70513408e-02,
          6.26418367e-02, -4.82491858e-04, 4.68908325e-02,
          -1.48266768e-02, -1.28955599e-02, -1.87498387e-02,
          -1.79012157e-02, -2.02933587e-02, 6.19042963e-02,
          -2.55447696e-03, 4.75321300e-02, -1.49502959e-02,
          -1.60565656e-02, -3.42774279e-02, -1.93229802e-02,
          -2.83725467e-02, 6.14454150e-02, -3.51753272e-03,
          4.71009985e-02, -1.54154943e-02, -1.80524383e-02,
          -4.42963541e-02, -2.04233192e-02, -3.30343768e-02,
          6.11980371e-02, -2.79096840e-03, 4.70466465e-02,
          -1.47857731e-02, -1.80906784e-02, -3.32676023e-02,
          -2.03565452e-02, -2.99521051e-02, 6.21137768e-02,
          -7.23832927e-04, 4.70142104e-02, -1.39875617e-02,
          -1.35308132e-02, -2.58687139e-02, -1.89826395e-02,
          -2.95927543e-02, 6.18729703e-02, -5.88392373e-04,
          4.69576344e-02, -1.19219646e-02, -1.30871153e-02,
          -3.11834253e-02, -1.85900405e-02, -3.45746763e-02,
          6.22397326e-02, 2.55207648e-04, 4.65068296e-02,
          -1.36248795e-02, -1.35552865e-02, -3.31989154e-02,
          -1.86106861e-02, -3.53165455e-02, 6.26069531e-02,
          5.28545934e-04, 4.64978926e-02, -1.47018731e-02,
          5.09295240e-03, -5.04307821e-02, 8.01532064e-03,
          9.19973385e-03, 9.37984046e-03, 9.36311949e-03, 9.37981252e-03 ]
      - [ -1.21294461e-01, -2.19526604e-01, 2.17873052e-01,
          -1.44769400e-01, -2.52577639e-03, -2.03913465e-01,
          1.65412519e-02, 1.96760315e-02, 3.46179456e-02, 2.05838010e-02,
          2.32202392e-02, 2.28651464e-02, 5.70477769e-02, 2.31049489e-02,
          2.32202392e-02, 4.60776985e-02, 2.95814052e-02, 1.84723288e-02,
          2.32202392e-02, 4.07753177e-02, 2.97550336e-02, 1.95613857e-02,
          2.58358698e-02, 3.99391800e-02, -1.01490594e-01,
          6.91530257e-02, -4.46277149e-02, 1.86204631e-02,
          7.59697855e-02, 1.31821828e-02, -5.76799773e-02,
          3.46265920e-02, -1.07672349e-01, 6.85538203e-02,
          -4.03454937e-02, 1.87438373e-02, 7.27943704e-02,
          1.38555495e-02, -5.50413169e-02, 3.98801155e-02,
          -8.69897678e-02, 7.09618181e-02, -3.12812366e-02,
          1.75508894e-02, 7.12826550e-02, 1.48578249e-02,
          -5.32224961e-02, 4.65767644e-02, -6.96101040e-02,
          7.15814307e-02, -3.55884731e-02, 1.44100683e-02,
          6.43227920e-02, 1.43033313e-02, -5.39399572e-02,
          4.03422751e-02, -1.08810514e-01, 7.00142458e-02,
          -5.36310971e-02, 1.60876978e-02, 6.96398616e-02,
          1.26339979e-02, -5.58872223e-02, 3.49458009e-02,
          -1.30802050e-01, 6.61695823e-02, -7.03967810e-02,
          1.51886325e-02, 7.12092668e-02, 1.15345921e-02,
          -5.84851056e-02, 3.58556956e-02, -1.20295361e-01,
          6.62164763e-02, -6.27761185e-02, 1.55464485e-02,
          7.45157376e-02, 1.12725748e-02, -6.19379543e-02,
          3.75499353e-02, -1.04754619e-01, 6.81527779e-02,
          -4.87299412e-02, 1.90122090e-02, 7.44135603e-02,
          1.25091840e-02, -5.99808097e-02, 4.99043241e-03,
          -1.17082577e-02, 6.53228024e-03, 7.96345994e-04,
          -1.55052650e-04, -3.10377654e-04, -1.45377722e-04 ]
      - [ 2.90217340e-01, 4.84149083e-02, -7.68289566e-02,
          -2.41624583e-02, 2.51235485e-01, -1.82544086e-02,
          -1.82587970e-02, -1.71604995e-02, 4.28772904e-03,
          -1.82587970e-02, -1.82587970e-02, -1.80664063e-02,
          6.15167171e-02, -1.82587970e-02, -1.82587970e-02,
          -1.89503450e-02, -3.85234207e-02, -1.82587970e-02,
          -1.82587970e-02, -4.08511423e-02, -1.20248735e-01,
          -1.27623677e-01, -2.71907020e-02, -5.70877688e-04,
          1.17805406e-01, 9.05095786e-03, 1.85160518e-01, 1.32268474e-01,
          -7.22617656e-02, 1.43067747e-01, -3.36880013e-02,
          6.51484309e-03, 6.66708425e-02, 1.07694017e-02, 1.55312523e-01,
          1.37200162e-01, -6.45739660e-02, 1.48806840e-01,
          -2.30805594e-02, -2.89453510e-02, -1.03943594e-01,
          -1.54583436e-02, 6.40073325e-03, 1.58616692e-01,
          -2.99552269e-02, 1.62018761e-01, 8.24996643e-03,
          -6.21855706e-02, -2.65881658e-01, -6.96440414e-02,
          -2.65732467e-01, 1.84012175e-01, 1.21076610e-02,
          1.71987861e-01, 4.24265005e-02, -1.05489537e-01,
          -4.22594577e-01, -9.45766568e-02, -3.69290799e-01,
          1.98537558e-01, 2.44442169e-02, 1.76019534e-01, 4.89092432e-02,
          -7.33428150e-02, -3.31573337e-01, -8.13196972e-02,
          -3.24408293e-01, 2.04233885e-01, 3.01612783e-02,
          1.71787128e-01, 3.92089710e-02, -4.21809703e-02,
          -1.70208067e-01, -4.79922518e-02, -1.62710503e-01,
          1.74571797e-01, -1.45102963e-02, 1.61994457e-01,
          1.59716588e-02, -2.78435349e-02, -7.67178982e-02,
          -9.42901336e-03, 7.50642270e-02, 1.41007870e-01,
          -5.60734496e-02, 1.49089679e-01, -2.32664552e-02,
          6.80345222e-02, -2.30032355e-01, 9.67355669e-02,
          2.35547274e-02, 1.50140394e-02, 1.16178868e-02, 1.50755588e-02 ]
      - [ 1.15673316e+00, -2.09016539e-02, -4.51953560e-01,
          -8.14754143e-02, 6.92245126e-01, -1.20332219e-01,
          -1.18342005e-01, -1.16257899e-01, 2.28728652e-01,
          -1.21771045e-01, -1.21753864e-01, -1.43387377e-01,
          6.22539341e-01, -1.29360244e-01, -1.21753864e-01,
          -3.16580117e-01, -8.35027248e-02, -1.67392135e-01,
          -1.21753864e-01, 5.56128323e-02, -1.11659773e-01,
          -3.01310509e-01, -1.06370553e-01, 2.16783546e-02,
          1.43526271e-01, 2.08602566e-02, 1.69188261e-01,
          -7.06383362e-02, 5.40966168e-03, -1.67021841e-01,
          -1.20970905e-01, 2.03850772e-02, 1.79986238e-01,
          4.11429964e-02, 3.38860601e-01, -3.51177789e-02,
          3.02647185e-02, -1.35043323e-01, -1.00212857e-01,
          2.21117889e-03, 2.14199305e-01, -5.56669757e-03,
          2.36765280e-01, -3.15757543e-02, 7.60952607e-02,
          -9.10567120e-02, -1.27930436e-02, -8.55395868e-02,
          -1.82157174e-01, -5.54349720e-02, -6.30954877e-02,
          -3.66625264e-02, 1.34188846e-01, -5.54268658e-02,
          2.93534771e-02, -1.06222592e-01, -4.18287635e-01,
          -5.06219119e-02, -9.32075381e-02, 6.61596563e-03,
          1.25722572e-01, -4.54065837e-02, 3.86758745e-02,
          -1.42323188e-02, 4.75684144e-02, -5.23036756e-02,
          -9.65512544e-02, 3.00043691e-02, 1.77056774e-01,
          -4.54990491e-02, 4.03230228e-02, -3.87798101e-02,
          -3.47085088e-03, -8.20224080e-03, 2.10335329e-01,
          -3.27238105e-02, 8.25041682e-02, -6.07808791e-02,
          2.20821667e-02, -1.99887101e-02, 1.00882733e-02,
          5.51590521e-04, 1.29541993e-01, -6.41835928e-02,
          4.16368768e-02, -1.37178347e-01, -9.08680484e-02,
          -3.49851251e-01, 2.18666267e+00, -1.51884288e-01,
          -3.91799778e-01, -4.27896202e-01, -4.37499911e-01,
          -4.27731574e-01 ]
      - [ 8.21731925e-01, -3.73971403e-01, -6.94422245e-01,
          -4.49427590e-02, -2.19878286e-01, -1.29185647e-01,
          -1.29082531e-01, -1.04164183e-01, 1.17098764e-01,
          -1.29259303e-01, -1.29259303e-01, -1.07595660e-01,
          9.37008858e-01, -1.29259303e-01, -1.29259303e-01,
          -1.24087416e-01, 1.41130373e-01, -1.29259303e-01,
          -1.29259303e-01, 9.06446725e-02, 2.48558983e-01,
          2.53174771e-02, 3.21395814e-01, 3.74651968e-01, 3.52907568e-01,
          3.59766632e-01, 1.61143854e-01, -1.97688207e-01,
          1.59209460e-01, -2.19714016e-01, 5.91907650e-02,
          2.61535555e-01, -1.21110789e-01, 3.00209999e-01,
          -6.96390122e-02, -2.26507708e-01, 1.46561086e-01,
          -2.40988255e-01, 5.81001155e-02, 2.05112636e-01,
          -2.82306165e-01, 2.73875117e-01, -1.88814104e-01,
          -2.10089177e-01, 1.66258797e-01, -2.35466585e-01,
          7.58707225e-02, 2.15495259e-01, -1.52136326e-01,
          2.75100946e-01, -8.91485065e-02, -1.57124996e-01,
          1.95925534e-01, -2.55407006e-01, 6.53615370e-02,
          2.25130498e-01, 2.56994925e-03, 2.64280319e-01,
          -1.05229728e-01, -1.99555963e-01, 1.88269079e-01,
          -2.60148138e-01, 7.81251714e-02, 6.70168996e-02,
          -6.48702562e-01, 2.42798269e-01, -1.85244441e-01,
          -2.40022153e-01, 1.58484370e-01, -2.63014942e-01,
          6.74580187e-02, 1.03297539e-01, -5.77785075e-01,
          2.52333492e-01, -1.84005141e-01, -2.44991586e-01,
          1.56984121e-01, -2.41642922e-01, 6.70640692e-02,
          2.06643119e-01, -1.89081416e-01, 3.07971746e-01,
          5.81226312e-02, -1.71560034e-01, 1.72839984e-01,
          -2.22368300e-01, 5.38247488e-02, -1.96411237e-01,
          1.98278546e+00, -1.00666948e-01, -3.84673327e-01,
          -4.30253476e-01, -4.40661818e-01, -4.30118620e-01 ]
      - [ 7.78633282e-02, -3.10858432e-02, 9.42203775e-02,
          2.60889605e-02, 2.91454401e-02, 2.51515545e-02, 2.51515545e-02,
          2.53232811e-02, 2.59081181e-02, 2.51515545e-02, 2.51515545e-02,
          2.53113639e-02, 3.30917351e-02, 2.51515545e-02, 2.51515545e-02,
          4.40668575e-02, 3.63715477e-02, 2.51515545e-02, 2.51515545e-02,
          1.10832281e-01, -1.06960952e-01, -3.02662224e-01,
          -2.88726747e-01, 2.23537385e-02, -3.06168180e-02,
          3.35788392e-02, -7.59684620e-03, -7.54890731e-03,
          3.09173651e-02, -1.10455276e-02, -1.96615215e-02,
          1.94882452e-02, -3.65711451e-02, 3.22427973e-02,
          -1.06702857e-02, -7.65185524e-03, 3.03302407e-02,
          -1.17752254e-02, -1.96170975e-02, 2.14857850e-02,
          -3.13029736e-02, 3.27446125e-02, -1.03243049e-02,
          -8.18766560e-03, 2.93000378e-02, -1.25281895e-02,
          -1.93509962e-02, 2.52370741e-02, -2.08262112e-02,
          3.38524617e-02, -9.23944172e-03, -1.08716814e-02,
          2.52725184e-02, -1.31114321e-02, -2.01427024e-02,
          2.39625406e-02, -2.99783703e-02, 3.36653292e-02,
          -1.41535746e-02, -8.19679722e-03, 2.82320678e-02,
          -1.30825872e-02, -2.04026420e-02, 2.16106456e-02,
          -3.77504155e-02, 3.23117226e-02, -1.85860116e-02,
          -6.76326128e-03, 3.01458668e-02, -1.30341081e-02,
          -2.14796998e-02, 2.07354780e-02, -3.71746309e-02,
          3.25949341e-02, -1.36524262e-02, -5.67662902e-03,
          3.18783894e-02, -1.24508478e-02, -2.24583764e-02,
          2.14648340e-02, -3.20943780e-02, 3.27267051e-02,
          -1.04698259e-02, -6.61231391e-03, 3.06040943e-02,
          -1.20666903e-02, -2.20119096e-02, -1.44055195e-03,
          2.10941937e-02, -2.13180669e-03, -4.13071364e-03,
          -4.44486272e-03, -4.50207619e-03, -4.44418564e-03 ]
      - [ 1.36069134e-01, -2.90677309e-01, -2.06765816e-01,
          -1.73950021e-03, 8.06159154e-02, -9.65194777e-03,
          -9.65194777e-03, -7.58079952e-03, 2.93344259e-02,
          -9.65194777e-03, -9.65194777e-03, -8.08273163e-03,
          8.51027817e-02, -9.65194777e-03, -9.65194777e-03,
          1.49502782e-02, 1.66972000e-02, -9.65194777e-03,
          -9.65194777e-03, 1.58571213e-01, 4.41389419e-02,
          -2.61265021e-02, 5.27081676e-02, 1.22971840e-01,
          -1.35811374e-01, 2.14814082e-01, 5.50530627e-02,
          -1.29698768e-01, 9.29844677e-02, -1.77819170e-02,
          8.16698521e-02, 1.00102074e-01, -1.91741377e-01,
          2.02121705e-01, 1.28429849e-02, -1.36486813e-01,
          8.86405408e-02, -2.80905422e-02, 7.85304308e-02,
          8.77277479e-02, -2.28717700e-01, 1.88526526e-01,
          -4.11811732e-02, -1.35644943e-01, 9.15902779e-02,
          -3.46718282e-02, 7.92980045e-02, 9.55185071e-02,
          -2.07173064e-01, 1.78416863e-01, -7.18609691e-02,
          -1.22260913e-01, 9.16460305e-02, -4.02275994e-02,
          7.83175752e-02, 8.91025439e-02, -2.44980440e-01,
          1.69659019e-01, -1.13261379e-01, -1.26710713e-01,
          9.37349945e-02, -3.55475582e-02, 8.55116770e-02,
          4.97831441e-02, -3.41870159e-01, 1.50753692e-01,
          -1.50962010e-01, -1.19254567e-01, 9.98043641e-02,
          -2.84459367e-02, 8.57401490e-02, 4.82453331e-02,
          -3.24013680e-01, 1.56776458e-01, -1.18370265e-01,
          -1.18614785e-01, 1.04761489e-01, -1.86597593e-02,
          8.44391882e-02, 8.52315351e-02, -2.07216084e-01,
          1.86148509e-01, -1.57160461e-02, -1.14342913e-01,
          1.01340286e-01, -1.51949981e-02, 8.27051178e-02,
          -1.73284188e-02, 1.85538203e-01, -7.48998392e-03,
          -3.62466089e-02, -4.11562994e-02, -4.21702676e-02,
          -4.11465950e-02 ]
      - [ 3.14920306e-01, -1.00475836e+00, -6.45989120e-01,
          2.63991449e-02, 6.29115939e-01, -3.73408683e-02,
          -3.70129310e-02, -1.74659938e-02, 2.84604549e-01,
          -3.75751220e-02, -3.75751220e-02, -2.18064152e-02,
          6.57251596e-01, -3.75751220e-02, -3.75751220e-02,
          2.21369620e-02, 4.73154634e-02, -3.75751220e-02,
          -3.75751220e-02, 3.78583223e-01, 1.68418922e-02,
          -2.74310440e-01, -1.13034889e-01, 9.13348868e-02,
          4.85855669e-01, 2.11027507e-02, 1.91691861e-01,
          -1.71377754e-03, 3.73527221e-02, -8.24661031e-02,
          -1.43959850e-01, 7.06116632e-02, 3.09169829e-01,
          2.91301683e-02, 1.93808079e-01, -2.02236976e-02,
          2.02444158e-02, -8.28430057e-02, -1.43591717e-01,
          2.46703755e-02, 1.24016657e-01, -2.17786245e-03,
          4.90396023e-02, -4.16317061e-02, 1.20237488e-02,
          -7.39846826e-02, -1.20057762e-01, 1.20730083e-02,
          3.40689719e-02, -2.41218060e-02, -3.87457386e-02,
          -7.71365268e-03, 4.10411097e-02, -6.93659484e-02,
          -1.26733691e-01, -1.49124069e-02, 1.49881495e-02,
          -4.28144783e-02, -6.61481470e-02, 5.00734672e-02,
          9.16735083e-02, -6.13619611e-02, -1.25003234e-01,
          -1.94218270e-02, -5.40697575e-02, -5.82776964e-02,
          -1.33076653e-01, 4.23740298e-02, 8.99331570e-02,
          -5.85492738e-02, -1.15752682e-01, -3.65532786e-02,
          -1.17098592e-01, -4.57075797e-02, -8.83467644e-02,
          -1.36168525e-02, 4.81791720e-02, -5.52609302e-02,
          -1.08374923e-01, 2.95719858e-02, 1.62601203e-01,
          -4.34737792e-03, 9.74996611e-02, -1.48247033e-02,
          2.72278693e-02, -6.74037635e-02, -1.21103458e-01,
          -1.57606408e-01, 1.24148834e+00, -7.32785910e-02,
          -2.33169794e-01, -2.56995648e-01, -2.63561189e-01,
          -2.56876677e-01 ]
      - [ 2.89319545e-01, 5.87892771e-01, 5.86008430e-01,
          -4.32716638e-01, -2.30532922e-02, -1.34782955e-01,
          -1.46713732e-02, -4.43509221e-02, -3.41155343e-02,
          -1.46713732e-02, -1.46713732e-02, -1.64993629e-02,
          -7.32339770e-02, -1.46713732e-02, -1.46713732e-02,
          1.80669188e-01, -1.46905473e-02, -1.46713732e-02,
          -1.46713732e-02, -1.16264544e-01, -7.96643496e-02,
          -4.69343632e-01, -1.02474891e-01, 1.61921397e-01,
          1.01481080e-01, 1.56073779e-01, 9.39771906e-02,
          -1.48136079e-01, 8.11660439e-02, -3.63563538e-01,
          -8.20911005e-02, 3.45050335e-01, 8.79809856e-01,
          2.10551932e-01, 3.72831166e-01, -2.65277535e-01,
          1.39435753e-02, -3.50064784e-01, -2.80197188e-02,
          1.86547369e-01, 3.37307930e-01, 1.67339861e-01, 3.25611204e-01,
          -1.26530603e-01, 2.10288703e-01, -2.99929976e-01,
          -6.03798628e-02, -4.77616210e-03, -1.17895402e-01,
          2.94011142e-02, 2.71926150e-02, 1.51345180e-02, 3.64701748e-01,
          -2.41514236e-01, -1.44861460e-01, -2.85132110e-01,
          -7.28620172e-01, -3.13666612e-02, -8.62344205e-02,
          1.58436283e-01, 5.26452780e-01, -2.14650616e-01,
          -2.12537512e-01, 5.01694623e-03, -1.16643392e-01,
          9.80673078e-03, -3.23292688e-02, 4.47216444e-02,
          3.56471270e-01, -2.37578392e-01, -2.45781288e-01,
          6.29339367e-02, -4.79350351e-02, 6.56713247e-02,
          -5.56205474e-02, 3.29413600e-02, 3.00900280e-01,
          -2.89579809e-01, -2.37032324e-01, 5.55725433e-02,
          -2.38183185e-01, 8.74338448e-02, -1.35289386e-01,
          -3.97990011e-02, 1.91791266e-01, -3.42210472e-01,
          -1.68918341e-01, 5.53974556e-03, 3.70095074e-02,
          9.28533077e-03, -1.28126051e-02, -1.29353292e-02,
          -1.31531851e-02, -1.29335253e-02 ]
      - [ 1.73511595e-01, -5.96456826e-01, 1.49623938e-02,
          -2.55308207e-02, 5.36133833e-02, -3.70406322e-02,
          -3.70632410e-02, -3.43263261e-02, 1.11384718e-02,
          -3.70632410e-02, -3.70632410e-02, -3.50320712e-02,
          8.10445398e-02, -3.70632410e-02, -3.70632410e-02,
          8.24460089e-02, -1.72746088e-02, -3.70632410e-02,
          -3.70632410e-02, 6.88293695e-01, -3.44255678e-02,
          -5.17023616e-02, -1.37782507e-02, 1.11853376e-01,
          -3.74179631e-02, 1.58413991e-01, 5.33240177e-02,
          -1.22189187e-01, 1.44892305e-01, -1.29923806e-01,
          -2.69817840e-02, 1.02424480e-01, -6.71593174e-02,
          1.54068127e-01, 3.06265447e-02, -1.27661958e-01,
          1.40081242e-01, -1.32395193e-01, -1.71671622e-02,
          9.50915217e-02, -1.11517005e-01, 1.51789397e-01,
          -2.07605452e-04, -1.27319351e-01, 1.47733673e-01,
          -1.33517519e-01, -3.07582901e-03, 1.14123620e-01,
          -7.05220178e-02, 1.50916979e-01, -2.75732689e-02,
          -1.35349646e-01, 1.37701824e-01, -1.35567635e-01,
          2.62900512e-03, 1.04950003e-01, -1.35282859e-01,
          1.47691071e-01, -6.59242794e-02, -1.26778573e-01,
          1.57999262e-01, -1.33253455e-01, 3.71397962e-03,
          8.19966495e-02, -2.08192497e-01, 1.38171673e-01,
          -9.19125378e-02, -1.18186019e-01, 1.63166165e-01,
          -1.28164679e-01, -2.53256364e-03, 8.00711587e-02,
          -1.82198644e-01, 1.35834381e-01, -6.37733862e-02,
          -1.14957549e-01, 1.65495664e-01, -1.22543558e-01,
          -1.38314078e-02, 9.34176967e-02, -9.15805697e-02,
          1.47268668e-01, 1.40207224e-02, -1.16370596e-01,
          1.46435335e-01, -1.28026649e-01, -2.68466175e-02,
          -3.34269814e-02, 2.73238569e-01, -1.96666960e-02,
          -5.09309359e-02, -5.60705736e-02, -5.70896380e-02,
          -5.60537130e-02 ]
      - [ 6.51369914e-02, -4.68574852e-01, 5.24290085e-01,
          1.58613101e-02, -2.72432994e-02, 3.58602926e-02,
          3.58602926e-02, 3.57148685e-02, 2.72278134e-02, 3.58602926e-02,
          3.58602926e-02, -2.97612436e-02, -2.07257614e-01,
          3.58602926e-02, 3.58602926e-02, 7.64168724e-02,
          -1.09132789e-01, 3.58602926e-02, 3.58602926e-02,
          -1.54190436e-01, -1.68651026e-02, -7.54841492e-02,
          5.69792539e-02, 8.75890106e-02, 2.76555214e-02, 9.90699232e-02,
          6.51881099e-02, -1.38988003e-01, 2.83280760e-01,
          -1.80587947e-01, -1.34288162e-01, 1.43797144e-01,
          2.54071712e-01, 1.14569217e-01, 1.33741111e-01,
          -1.73733652e-01, 2.57333219e-01, -1.78006858e-01,
          -1.12894148e-01, 1.03702039e-01, 1.20757394e-01,
          1.06561549e-01, 1.24061003e-01, -1.29002914e-01,
          3.10173005e-01, -1.65727079e-01, -1.25520885e-01,
          7.15879351e-02, 5.34893833e-02, 5.40894791e-02,
          -1.23729091e-02, -9.33961198e-02, 3.33148330e-01,
          -1.50299579e-01, -1.65481582e-01, -9.98468772e-02,
          -3.70631605e-01, 1.12383906e-02, -1.43131316e-01,
          -8.23552441e-03, 4.19891268e-01, -1.42257988e-01,
          -1.98594362e-01, -9.29610338e-04, -2.08849624e-01,
          1.68391857e-02, -1.54762313e-01, -3.96035947e-02,
          3.90502781e-01, -1.45742744e-01, -2.16039732e-01,
          5.36169708e-02, -4.94012982e-02, 5.81239052e-02,
          -3.87839340e-02, -6.63278252e-02, 3.58658880e-01,
          -1.58024386e-01, -2.11347356e-01, 6.10913448e-02,
          -4.20723632e-02, 7.80828744e-02, 4.21557482e-03,
          -1.02365926e-01, 3.12049359e-01, -1.75337389e-01,
          -1.75590619e-01, -2.29122769e-03, 7.87258744e-02,
          -1.04831262e-02, -1.65008064e-02, -1.64842270e-02,
          -1.64822880e-02, -1.64842568e-02 ]
      - [ 5.00114143e-01, -2.77530868e-02, -1.33178338e-01,
          -2.01508224e-01, 3.45293134e-01, -3.16297174e-01,
          9.23562124e-02, 9.95313078e-02, 2.11539865e-01, 9.27594379e-02,
          9.27594379e-02, 9.80338156e-02, 2.64255583e-01, 9.27594379e-02,
          9.27594379e-02, 1.21992156e-01, 5.19655738e-03, 9.27594379e-02,
          9.27594379e-02, 2.26746470e-01, -3.08519304e-01,
          -5.38965821e-01, -9.95394111e-01, 1.93895213e-02,
          7.33933076e-02, 2.54170503e-02, 1.00950308e-01,
          -5.62268198e-02, 1.51504409e-02, -5.47667481e-02,
          1.14588980e-02, 1.53356791e-02, 1.45595269e-02, 1.51647441e-02,
          4.95609492e-02, -5.98019138e-02, 1.11773247e-02,
          -5.46956956e-02, 1.66024324e-02, -6.54478790e-05,
          -6.37930259e-02, 8.34721886e-03, -4.13246034e-03,
          -5.41923270e-02, 2.07161866e-02, -4.89374809e-02,
          2.70286314e-02, 1.89456083e-02, 5.30068763e-03, 1.13359559e-02,
          1.40915904e-02, -5.48067316e-02, 1.90167818e-02,
          -4.31456193e-02, 3.10846660e-02, 1.50637552e-02,
          1.94654409e-02, 1.19356550e-02, 1.49637088e-02,
          -4.58121561e-02, 3.12846974e-02, -4.25579771e-02,
          2.99766250e-02, 1.13814911e-02, -3.95051204e-02,
          1.71063002e-02, 2.56013833e-02, -5.84779307e-02,
          2.21729074e-02, -4.94127013e-02, 2.10931357e-02,
          6.88620331e-03, -4.88306247e-02, 1.85393561e-02,
          3.67670730e-02, -7.20097125e-02, 1.36182327e-02,
          -5.55246994e-02, 1.29472865e-02, 2.42182091e-02,
          3.11080012e-02, 2.54223347e-02, 9.30400193e-02,
          -6.34090677e-02, 1.25132054e-02, -5.79713210e-02,
          8.94270185e-03, -7.31032863e-02, 6.12132430e-01,
          -4.51758876e-02, -1.14467002e-01, -1.25582039e-01,
          -1.28260970e-01, -1.25543103e-01 ]
      - [ -2.07495759e-05, -3.05904038e-02, 7.67155439e-02,
          2.79964488e-02, 6.59126192e-02, 2.78456584e-02, 2.78587919e-02,
          2.78456584e-02, 5.01898751e-02, 2.78456584e-02, 2.78456584e-02,
          2.78456584e-02, 8.09653252e-02, 2.78456584e-02, 2.78456584e-02,
          3.58603410e-02, 1.02208303e-02, 2.78456584e-02, 2.78456584e-02,
          5.55219501e-02, -2.84121960e-01, -7.53016397e-02,
          -2.91817874e-01, -1.63833611e-02, -5.28157055e-02,
          -1.51568064e-02, -3.86533961e-02, 6.19374998e-02,
          1.11396983e-02, 4.15937193e-02, -2.24004183e-02,
          -1.28264055e-02, -5.68177514e-02, -1.02531631e-02,
          -2.26791985e-02, 5.75171225e-02, 6.17907150e-03,
          4.03049923e-02, -2.50213668e-02, -4.39212192e-03,
          -1.99389458e-02, -3.89828975e-03, 2.91748182e-03,
          5.71625382e-02, 4.43767058e-03, 4.07348871e-02,
          -2.48262398e-02, 1.73320982e-03, 4.69585555e-03,
          -2.22892500e-03, 1.14242239e-02, 5.73033169e-02,
          4.41406155e-03, 4.18116413e-02, -2.33270135e-02,
          -1.08968038e-02, -3.51630263e-02, -7.40258116e-03,
          -1.04426006e-02, 5.81065491e-02, 6.84239017e-03,
          4.19143625e-02, -2.25311127e-02, -1.48393735e-02,
          -7.31388107e-02, -1.21822339e-02, -3.90112624e-02,
          5.81302531e-02, 8.99828132e-03, 4.25956212e-02,
          -2.05269549e-02, -1.29803568e-02, -6.28382564e-02,
          -1.41333463e-02, -4.80993427e-02, 6.40162751e-02,
          1.39556034e-02, 4.25890647e-02, -2.03506146e-02,
          -1.31372651e-02, -5.88218197e-02, -1.49652669e-02,
          -4.43094186e-02, 6.60643652e-02, 1.60333216e-02,
          4.32340838e-02, -2.03975849e-02, -8.64548329e-03,
          7.05942586e-02, -1.31594168e-03, -1.35164298e-02,
          -1.55835571e-02, -1.59673486e-02, -1.55655043e-02 ]
      - [ 5.05393669e-02, 2.27840632e-01, -2.26958677e-01,
          3.74880955e-02, 6.49365187e-02, 6.87311292e-02, 2.55050920e-02,
          -2.62129935e-03, 8.61052144e-03, -3.19649791e-03,
          -3.72091495e-03, -4.27304255e-03, -3.91603149e-02,
          -3.69400112e-03, -3.72091495e-03, -4.32910807e-02,
          -4.42220345e-02, -2.82627065e-03, -3.72091495e-03,
          -3.51282023e-02, -5.70988320e-02, -4.43253201e-03,
          -5.58583857e-03, -1.58597454e-02, 1.76521558e-02,
          -2.63979118e-02, -3.64189997e-04, 3.76342833e-02,
          -6.45358721e-03, 1.90510992e-02, -7.31681427e-03,
          -1.29721351e-02, 2.19978429e-02, -2.50529777e-02,
          5.24721760e-03, 3.66529338e-02, -1.10890204e-02,
          1.82277430e-02, -1.15597425e-02, -1.35170138e-02,
          1.62935276e-02, -2.50001960e-02, 1.66430930e-03,
          3.70485820e-02, -1.10973241e-02, 1.79517865e-02,
          -1.21910209e-02, -1.41520891e-02, 9.17148218e-03,
          -2.55970415e-02, -4.92253341e-03, 3.71960811e-02,
          -5.75395767e-03, 1.88909676e-02, -8.24878644e-03,
          -1.66219119e-02, 3.00365011e-03, -2.76218448e-02,
          -1.80403683e-02, 3.87005620e-02, 4.46098507e-04,
          1.97691508e-02, -5.85416984e-03, -1.67913027e-02,
          -1.09074665e-02, -2.79679168e-02, -2.44213995e-02,
          3.93985324e-02, 2.49493006e-03, 1.95494611e-02,
          -6.46530278e-03, -1.69158727e-02, -1.18885096e-02,
          -2.77607627e-02, -2.36541554e-02, 4.03883308e-02,
          3.53860180e-03, 1.90033615e-02, -6.94988016e-03,
          -1.54815596e-02, 2.41582538e-03, -2.69065611e-02,
          -1.33035993e-02, 3.85818779e-02, 1.40100849e-04,
          1.91873517e-02, -6.19915687e-03, 1.66216996e-02,
          -3.79733853e-02, 2.99829245e-03, 4.40105377e-03,
          4.59977752e-03, 4.75285621e-03, 4.59970068e-03 ]
      - [ 1.05028093e-01, 1.73167691e-01, -1.72900021e-01,
          4.60212789e-02, 6.49531633e-02, 1.19025156e-01, 2.77308468e-02,
          -1.61203500e-02, -3.16017750e-03, -3.46338772e-03,
          -3.87930381e-03, -2.52303779e-02, -7.27001159e-03,
          -7.98644405e-03, -3.87930381e-03, -6.75165430e-02,
          -4.70193848e-03, -2.78604366e-02, -3.87930381e-03,
          -4.13576029e-02, -4.79481602e-03, -1.37588248e-01,
          -4.33796085e-03, -1.10930456e-02, 1.90290846e-02,
          -1.86781324e-02, 1.11597897e-02, -4.43508616e-03,
          1.76423893e-03, -2.55842134e-02, -7.75721064e-03,
          -4.40332852e-03, 3.83403450e-02, -1.69692002e-02,
          1.59743223e-02, -6.00800756e-03, 7.66209851e-04,
          -2.51224320e-02, -7.25691719e-03, -1.01049396e-03,
          5.13373129e-02, -1.41341370e-02, 2.80923080e-02,
          -7.30786426e-03, -1.43247179e-03, -2.45771948e-02,
          -6.98004477e-03, -3.21796141e-03, 4.39349525e-02,
          -1.53949372e-02, 2.20076293e-02, -6.86749723e-03,
          -2.19207883e-04, -2.50112955e-02, -7.90933240e-03,
          -8.65020137e-03, 2.64220890e-02, -1.68436542e-02,
          1.77247953e-02, -5.38450852e-03, 4.41154349e-04,
          -2.54978761e-02, -9.05459747e-03, -4.91938507e-03,
          4.01756354e-02, -1.60631984e-02, 2.16225274e-02,
          -5.33100078e-03, 3.10334599e-06, -2.53467858e-02,
          -9.06675961e-03, -2.19391775e-03, 5.10793030e-02,
          -1.43287824e-02, 3.04546580e-02, -5.74820535e-03,
          -1.42734603e-03, -2.50179041e-02, -8.41359980e-03,
          -3.37897590e-03, 4.46538329e-02, -1.64832156e-02,
          1.92286894e-02, -6.10681018e-03, -7.34016066e-05,
          -2.53690816e-02, -8.14274419e-03, -8.78120423e-04,
          -4.36242577e-03, 1.38054299e-03, 1.00847392e-03,
          9.55492374e-04, 9.40421189e-04, 9.55612049e-04 ]
      - [ 2.80454662e-02, 6.68561310e-02, -2.90513784e-01,
          5.88666350e-02, 3.93131711e-02, 1.46354556e-01, 9.53430124e-03,
          -5.15270000e-03, 2.27057282e-03, -5.07314038e-03,
          -5.46036009e-03, -5.27727045e-03, -1.75012683e-03,
          -5.45612955e-03, -5.46036009e-03, -2.62899883e-03,
          -5.31385699e-03, -5.43291215e-03, -5.46036009e-03,
          7.84086436e-03, -5.30171441e-03, -5.33962529e-03,
          -5.46036009e-03, -1.20292464e-03, 5.42034842e-02,
          -1.57665126e-02, 2.74160914e-02, -1.82608832e-02,
          2.35118102e-02, -6.40580803e-02, -1.63163673e-02,
          -2.43676989e-03, 5.19279540e-02, -1.62703935e-02,
          2.55823489e-02, -1.80524196e-02, 2.41567437e-02,
          -6.30199835e-02, -1.41642764e-02, -2.80421023e-04,
          5.60770333e-02, -1.56017477e-02, 2.70996802e-02,
          -1.56497974e-02, 2.60768384e-02, -6.23367429e-02,
          -1.35818478e-02, 4.38748189e-04, 5.77435978e-02,
          -1.39963245e-02, 3.12711783e-02, -1.73502564e-02,
          2.56397706e-02, -6.21296540e-02, -1.41443647e-02,
          2.21114536e-03, 6.12368174e-02, -1.23973442e-02,
          3.59696448e-02, -1.81181841e-02, 2.41618101e-02,
          -6.26394376e-02, -1.53767010e-02, -3.16547288e-04,
          6.01702817e-02, -1.29466960e-02, 3.70289870e-02,
          -1.92945283e-02, 2.27822959e-02, -6.37281463e-02,
          -1.68709420e-02, -1.49337016e-03, 5.67525439e-02,
          -1.38257490e-02, 3.53490971e-02, -1.83615722e-02,
          2.31596082e-02, -6.47554100e-02, -1.81431603e-02,
          -1.55388308e-03, 5.60333729e-02, -1.45223020e-02,
          3.20741087e-02, -1.91749744e-02, 2.23977286e-02,
          -6.45476580e-02, -1.77863911e-02, -3.94808128e-04,
          -7.78581202e-03, -9.23595624e-04, 1.16826012e-03,
          2.73036235e-03, 2.46898341e-03, 2.73659802e-03 ]
      - [ 2.85706879e-03, 1.44534111e-01, -1.37466192e-01,
          5.34900613e-02, 7.33077303e-02, 1.12917230e-01, 4.01098393e-02,
          1.48057761e-02, 2.66695283e-02, 1.47968046e-02, 1.41939837e-02,
          1.44748837e-02, 2.02074256e-02, 1.42003335e-02, 1.41939837e-02,
          1.81419421e-02, 1.44912330e-02, 1.42100407e-02, 1.41939837e-02,
          2.72510108e-02, -6.24081157e-02, -2.04748631e-01,
          -2.44424045e-01, 3.12624150e-03, 2.82215904e-02,
          -2.17076344e-03, 1.82892587e-02, -1.78906824e-02,
          3.33161233e-03, -2.63403431e-02, -4.86481050e-03,
          8.20631394e-04, 2.25680023e-02, -3.62136983e-03,
          1.45096360e-02, -1.72845554e-02, 4.06559510e-03,
          -2.58985087e-02, -4.36099013e-03, 2.29076622e-03,
          2.58127823e-02, -3.68702295e-03, 1.46568213e-02,
          -1.50869945e-02, 5.03108231e-03, -2.57026944e-02,
          -4.39638225e-03, 3.62750865e-03, 2.86599398e-02,
          -2.94580869e-03, 1.58802979e-02, -1.59793720e-02,
          4.38541221e-03, -2.62501296e-02, -5.61669515e-03,
          3.24663008e-03, 2.66989600e-02, -1.92276167e-03,
          1.74163058e-02, -1.57713685e-02, 3.71280988e-03,
          -2.66795196e-02, -6.42541936e-03, 3.73150641e-03,
          2.80239377e-02, -1.62211817e-03, 1.81595348e-02,
          -1.69773586e-02, 2.86151818e-03, -2.76506580e-02,
          -7.25863967e-03, 3.34776007e-03, 2.80101020e-02,
          -1.12415990e-03, 1.98875964e-02, -1.60029884e-02,
          3.49708530e-03, -2.79903989e-02, -7.25030061e-03,
          4.20982903e-03, 3.03813610e-02, -1.10992079e-03,
          2.02121828e-02, -1.75924301e-02, 2.70337774e-03,
          -2.73520295e-02, -6.55048247e-03, -1.16338371e-03,
          7.50554726e-03, -1.17081858e-03, -1.28004223e-03,
          -1.29495747e-03, -1.30146684e-03, -1.29488565e-03 ]
      - [ 1.23867221e-01, 7.08058551e-02, -7.00188279e-01,
          8.76747146e-02, 8.16592500e-02, 3.25166106e-01, 3.62892146e-03,
          -8.25062115e-03, 5.06189018e-02, -4.44975076e-03,
          -7.33915716e-03, -3.45975868e-02, 1.96286179e-02,
          -7.31069734e-03, -7.33915716e-03, 6.90230355e-03,
          -6.60264120e-03, -7.32433191e-03, -7.33915716e-03,
          7.30406418e-02, -7.02754688e-03, -3.78528535e-02,
          -7.37086125e-03, 4.01626714e-03, 4.33350690e-02,
          6.97754743e-03, 4.59525511e-02, -7.04030320e-02,
          6.63128635e-03, -6.47988692e-02, -1.15386704e-02,
          2.63876934e-03, 4.51091081e-02, 6.35550031e-03, 4.26059589e-02,
          -7.43302032e-02, 7.38186389e-03, -6.85759783e-02,
          -9.89410654e-03, 1.29568446e-02, 6.07507452e-02,
          1.10840993e-02, 5.34991547e-02, -7.24472329e-02,
          8.29232205e-03, -6.30355030e-02, -2.25898670e-03,
          1.92572791e-02, 7.58820325e-02, 1.13356672e-02, 5.23319207e-02,
          -6.41072467e-02, 1.37943299e-02, -5.96881211e-02,
          -2.28167651e-03, 1.46870567e-02, 6.03754148e-02,
          1.31323580e-02, 5.45231849e-02, -5.83619028e-02,
          1.42052444e-02, -5.95135763e-02, -6.01392938e-03,
          4.80402261e-03, 5.11052161e-02, 7.07115885e-03, 4.73772585e-02,
          -5.32198548e-02, 1.29764993e-02, -5.73656633e-02,
          -7.00297812e-03, -1.22236816e-04, 4.41571027e-02,
          4.33910172e-03, 4.65106368e-02, -5.19206151e-02,
          1.38900038e-02, -5.46366461e-02, -6.64277934e-03,
          3.94922961e-03, 4.92932945e-02, 6.63412921e-03, 5.08245565e-02,
          -5.75786754e-02, 1.06889661e-02, -5.66337630e-02,
          -8.36052466e-03, -4.01777390e-04, 6.41954923e-03,
          -1.63829513e-03, -1.10026926e-03, -1.09317666e-03,
          -1.09290273e-03, -1.09315955e-03 ]
      - [ 1.47551298e-01, 6.34052977e-02, -3.50601465e-01,
          3.66639718e-02, 2.52676234e-02, 1.02913931e-01,
          -4.67825448e-04, -3.36322328e-03, 1.61917936e-02,
          -3.33069405e-03, -4.35502268e-03, -3.88056482e-03,
          5.20537142e-03, -4.34428360e-03, -4.35502268e-03,
          2.29646149e-03, -4.09391942e-03, -4.33045346e-03,
          -4.35502268e-03, 2.75119580e-02, -4.24455339e-03,
          -3.09306905e-02, -4.35502268e-03, -2.46350169e-02,
          7.51895383e-02, -4.43381220e-02, 3.44626084e-02,
          4.25170781e-03, -1.02709103e-02, -3.01800445e-02,
          -2.79339012e-02, -2.30605174e-02, 7.50037283e-02,
          -4.44067679e-02, 3.32673080e-02, 5.04831690e-03,
          -9.36281774e-03, -2.85438504e-02, -2.58554425e-02,
          -2.07757633e-02, 8.36169869e-02, -4.29069772e-02,
          3.87713276e-02, 8.43616389e-03, -7.52611319e-03,
          -2.82021835e-02, -2.55966764e-02, -1.81236584e-02,
          8.90395120e-02, -4.12880257e-02, 4.23580557e-02,
          5.79460338e-03, -8.94882251e-03, -2.97805015e-02,
          -2.76817102e-02, -2.04331707e-02, 8.15258622e-02,
          -3.92020494e-02, 4.69035171e-02, 2.77954456e-03,
          -1.21887457e-02, -3.17410566e-02, -3.01326010e-02,
          -1.70332007e-02, 8.73020887e-02, -3.78069803e-02,
          4.89115156e-02, 5.14660496e-04, -1.40087064e-02,
          -3.28744948e-02, -3.07624824e-02, -1.66923888e-02,
          9.06031057e-02, -3.78017202e-02, 5.00697196e-02,
          3.03525035e-03, -1.21573871e-02, -3.24287824e-02,
          -3.00122630e-02, -1.78875998e-02, 8.93943459e-02,
          -3.99020314e-02, 4.56193350e-02, 3.13287764e-03,
          -1.18839452e-02, -3.12134176e-02, -2.94508804e-02,
          -1.94845907e-03, 1.36454348e-02, -2.01569498e-03,
          -2.38147960e-03, -2.42949044e-03, -2.44091847e-03,
          -2.42939685e-03 ]
      - [ 1.01160757e-01, 2.89194703e-01, 7.20145123e-04,
          -1.23827323e-01, 5.05097061e-02, 1.12928540e-01,
          2.50334982e-02, -1.81737449e-02, -1.80527586e-02,
          -1.18928012e-02, -1.26073742e-02, -1.26461023e-02,
          -3.46374139e-02, -1.25772385e-02, -1.26073742e-02,
          -5.60401380e-03, -1.89020373e-02, -1.13228783e-02,
          -1.26073742e-02, -1.17946364e-01, -2.21566688e-02,
          -1.01769798e-01, -3.22160609e-02, -1.48316780e-02,
          3.34896594e-02, -2.94782612e-02, 9.16944817e-03,
          1.25445956e-02, -1.18350089e-02, 7.89530895e-05,
          -2.28563114e-03, -1.02792848e-02, 4.65433449e-02,
          -2.67737638e-02, 1.94224976e-02, 1.01272566e-02,
          -1.42352888e-02, -9.73009912e-04, -5.56306867e-03,
          -1.02981878e-02, 4.77732718e-02, -2.64353342e-02,
          2.35361923e-02, 1.10773807e-02, -1.47962272e-02,
          -8.93426593e-04, -6.93574641e-03, -1.36134131e-02,
          3.76351066e-02, -2.93898806e-02, 1.42704817e-02,
          1.26500903e-02, -1.22452369e-02, 5.22457049e-06,
          -6.43617427e-03, -2.07685102e-02, 1.99341159e-02,
          -3.28080356e-02, 3.40173673e-03, 1.49563877e-02,
          -8.66921619e-03, 1.46596541e-03, -4.17022407e-03,
          -1.57412589e-02, 2.61201914e-02, -3.22959162e-02,
          1.61092670e-03, 1.48926256e-02, -8.28729104e-03,
          2.92506255e-03, -8.28804914e-05, -1.44047253e-02,
          2.88685374e-02, -3.13213095e-02, 2.01571587e-04,
          1.75968204e-02, -6.19483646e-03, 3.42588918e-03,
          2.71735154e-03, -1.39376326e-02, 2.92868726e-02,
          -3.05102635e-02, 1.90559833e-03, 1.43464496e-02,
          -8.99561308e-03, 2.11630296e-03, 1.39043119e-03,
          3.41230771e-03, -2.91924309e-02, 4.12711361e-03,
          5.37626818e-03, 5.42197144e-03, 5.43288793e-03, 5.42188529e-03 ]
      - [ 3.61368179e-01, -9.95126963e-02, -3.93209845e-01,
          4.98859994e-02, 1.33380508e-02, 8.09362471e-01,
          -5.41971624e-02, -5.85262068e-02, -3.13439146e-02,
          -5.80449365e-02, -5.98142259e-02, -5.91970496e-02,
          -4.64467332e-02, -5.94323464e-02, -5.98142259e-02,
          -5.03017157e-02, -5.93804307e-02, -5.27428612e-02,
          -5.98142259e-02, -1.02715231e-02, -5.94967268e-02,
          9.74062830e-02, -5.98142259e-02, -1.10887952e-01,
          4.53187108e-01, -3.53662342e-01, 8.04022327e-02,
          9.62160155e-02, -3.94876897e-01, 5.96492086e-03,
          7.49585479e-02, -1.01306163e-01, 4.15877789e-01,
          -3.59367460e-01, 4.27684821e-02, 9.44019854e-02,
          -3.96735221e-01, 3.44126113e-03, 6.24660179e-02,
          -1.12735927e-01, 3.52160573e-01, -3.52031738e-01,
          1.42856818e-02, 1.47884488e-01, -3.46774936e-01,
          1.72445308e-02, 8.90190825e-02, -7.28654489e-02,
          3.98678124e-01, -3.32808018e-01, 3.17320973e-02,
          1.41907886e-01, -2.80816138e-01, 2.46942993e-02,
          1.08368076e-01, -5.34578972e-02, 4.79454011e-01,
          -2.90135205e-01, 1.50334090e-01, 1.05883241e-01,
          -2.78055400e-01, 2.30940022e-02, 1.19607553e-01,
          -2.21992545e-02, 5.04807651e-01, -2.83573270e-01,
          1.59503922e-01, 7.29033872e-02, -3.27661991e-01,
          7.12924171e-03, 1.06629513e-01, -6.10830225e-02,
          4.22752500e-01, -2.92968959e-01, 1.29009798e-01,
          8.76935124e-02, -3.53582561e-01, -6.93855854e-03,
          8.01641569e-02, -4.58456278e-02, 5.24318755e-01,
          -3.15254629e-01, 1.36839941e-01, 9.76798609e-02,
          -3.66239876e-01, -4.84629627e-03, 5.32462411e-02,
          -3.28733819e-04, 4.38817926e-02, -4.73697390e-03,
          -9.52564459e-03, -9.76001751e-03, -9.77019593e-03,
          -9.76001751e-03 ]
      - [ 2.95046985e-01, 8.37327912e-02, 2.18530446e-02, 6.67192787e-02,
          -3.71344783e-03, 3.31719756e-01, -2.18758900e-02,
          -2.32100245e-02, 8.35581869e-03, -2.35196501e-02,
          -2.81533618e-02, -2.77013630e-02, -9.24786106e-02,
          -2.79078931e-02, -2.81533618e-02, -9.13225673e-03,
          -1.56534195e-01, -2.22971067e-02, -2.81533618e-02,
          -1.12083293e-01, -8.14077929e-02, -9.29527581e-02,
          -2.81533618e-02, -9.29548889e-02, 2.08853692e-01,
          -1.67733312e-01, 7.87508935e-02, 1.21984743e-01,
          -1.75487157e-02, -5.52961929e-03, -1.23916522e-01,
          -8.29252675e-02, 2.06011891e-01, -1.66864827e-01,
          6.71224073e-02, 1.26367807e-01, -1.06479824e-02,
          -3.95507040e-03, -1.22185960e-01, -8.81988406e-02,
          1.88147560e-01, -1.67285249e-01, 5.88305183e-02,
          1.42420769e-01, 2.00296426e-03, -4.45033330e-03,
          -1.21176809e-01, -8.41250196e-02, 1.84803098e-01,
          -1.68034434e-01, 4.56514135e-02, 1.33728147e-01,
          -2.30277842e-03, -4.11634240e-03, -1.21204101e-01,
          -9.74539891e-02, 1.55616641e-01, -1.67367473e-01,
          3.65424305e-02, 1.27991214e-01, -5.92612801e-03,
          -4.95389663e-03, -1.23408660e-01, -7.96690360e-02,
          1.82845756e-01, -1.60517558e-01, 6.03011250e-02,
          1.23325303e-01, -1.06748044e-02, -8.05958826e-03,
          -1.29312769e-01, -7.80135021e-02, 2.10045472e-01,
          -1.55825958e-01, 9.20972750e-02, 1.29145846e-01,
          -8.12341832e-03, -1.02434848e-02, -1.31396726e-01,
          -7.78131112e-02, 2.17411980e-01, -1.58558592e-01,
          9.71351936e-02, 1.21358506e-01, -1.77733246e-02,
          -8.70853290e-03, -1.29535973e-01, 2.40260139e-04,
          -1.58416107e-02, -1.25961180e-03, 3.58761358e-03,
          4.44947276e-03, 4.37296228e-03, 4.45086369e-03 ]
      - [ 1.83461353e-01, 9.49029103e-02, -2.27385059e-01,
          -1.15994990e-01, 4.27523851e-02, 1.53083086e-01,
          5.04309274e-02, 5.00098020e-02, 2.79443413e-02, 5.03437407e-02,
          5.03303669e-02, 5.02758846e-02, -1.12642825e-01,
          5.03435768e-02, 5.03303669e-02, 5.12090214e-02, 8.88400897e-03,
          5.07789813e-02, 5.03303669e-02, -6.90713301e-02,
          -8.17367360e-02, -2.69383073e-01, -1.39197111e-01,
          -2.56488360e-02, 4.80829217e-02, -4.95501272e-02,
          8.50449223e-03, 4.26454134e-02, -1.28749656e-02,
          -3.78915109e-03, -3.36717777e-02, -2.17952300e-02,
          5.45194782e-02, -4.73117903e-02, 1.67466830e-02,
          4.11054008e-02, -1.66379604e-02, -3.79250594e-03,
          -3.54064181e-02, -1.91339608e-02, 6.53728619e-02,
          -4.52227145e-02, 2.35019661e-02, 4.26765569e-02,
          -1.83022190e-02, -5.26033575e-03, -3.61625552e-02,
          -1.67119317e-02, 7.04797432e-02, -4.34800498e-02,
          2.82837730e-02, 3.89944129e-02, -2.05831844e-02,
          -6.17928477e-03, -3.75310481e-02, -1.80759616e-02,
          6.98894486e-02, -4.24276628e-02, 3.11689042e-02,
          3.75816599e-02, -2.14189626e-02, -6.19940599e-03,
          -3.60557698e-02, -1.62528008e-02, 6.49753362e-02,
          -4.27278131e-02, 2.48174332e-02, 3.72472815e-02,
          -1.97019149e-02, -5.37004136e-03, -3.25867385e-02,
          -1.83447637e-02, 5.82619421e-02, -4.38037887e-02,
          1.87595747e-02, 4.02181931e-02, -1.63125843e-02,
          -4.70961491e-03, -3.12841982e-02, -1.98931601e-02,
          5.45038171e-02, -4.66629155e-02, 1.26421237e-02,
          4.10821438e-02, -1.40411090e-02, -4.11906326e-03,
          -3.30272503e-02, 9.58981400e-04, 1.92412117e-03,
          -6.40163547e-04, -6.81008736e-04, -4.75826237e-04,
          -6.13908865e-04, -4.72193758e-04 ]
      - [ -7.88334906e-02, 1.85188726e-01, -1.19345330e-01,
          6.40430450e-02, 7.11480603e-02, 8.43815729e-02, 3.84083614e-02,
          5.95720066e-03, 7.15247029e-03, 5.77370496e-03, 5.43107418e-03,
          5.50106866e-03, 2.01623933e-03, 5.44617325e-03, 5.43107418e-03,
          9.43375938e-03, -8.22522491e-03, 6.04077009e-03,
          5.43107418e-03, 3.54076847e-02, -1.54359013e-01,
          -3.91690657e-02, -1.42259926e-01, -1.13463905e-02,
          2.17234772e-02, -1.90031826e-02, 1.10016083e-02,
          2.12672967e-02, -5.97144943e-04, 2.58568022e-03,
          -2.19635628e-02, -1.06462855e-02, 1.86674614e-02,
          -1.85890943e-02, 1.11648636e-02, 2.14163195e-02,
          -6.63876941e-04, 2.55759829e-03, -2.24436522e-02,
          -1.07126748e-02, 1.93849821e-02, -1.86685380e-02,
          1.14994030e-02, 2.20567808e-02, -6.03332126e-04,
          2.45015789e-03, -2.24450175e-02, -1.01547278e-02,
          2.26366054e-02, -1.86111797e-02, 1.24425422e-02,
          2.12216862e-02, -1.31563388e-03, 2.93777604e-03,
          -2.13957466e-02, -1.15463762e-02, 1.90134346e-02,
          -1.94322839e-02, 8.68868828e-03, 2.15405654e-02,
          -3.98561475e-04, 3.50454729e-03, -2.04295814e-02,
          -1.15038287e-02, 1.16750598e-02, -1.93671174e-02,
          5.39284525e-03, 2.15029791e-02, -1.28001862e-04,
          3.30268312e-03, -2.04092879e-02, -1.11078061e-02,
          1.53277628e-02, -1.91142075e-02, 5.62280370e-03,
          2.24325098e-02, 6.49846334e-04, 2.63991393e-03,
          -2.12479327e-02, -1.07932677e-02, 1.69155356e-02,
          -1.89027619e-02, 7.99157098e-03, 2.15946790e-02,
          2.17892128e-04, 2.42266385e-03, -2.19091419e-02,
          -1.11245245e-05, 8.94814846e-04, -1.31822584e-04,
          -1.82580596e-04, -1.89830607e-04, -1.89620361e-04,
          -1.89832223e-04 ]
      - [ -2.60659963e-01, 1.22946508e-01, 7.64641091e-02,
          5.35365613e-03, -2.17916090e-02, -1.19339190e-02,
          -1.20139169e-02, -1.21421507e-02, -1.43387774e-02,
          -1.20174950e-02, -1.20139169e-02, -1.81140509e-02,
          5.19113801e-02, -1.35978032e-02, -1.20139169e-02,
          -3.40302922e-02, 3.89925130e-02, -2.15172395e-02,
          -1.20139169e-02, 1.65229868e-02, 1.07576281e-01,
          5.60442731e-02, -7.61270663e-03, 3.39045152e-02,
          9.81990024e-02, 2.02274062e-02, 1.67783573e-02,
          -1.73845768e-01, 5.26048206e-02, -1.88413188e-01,
          -1.54746138e-03, 3.01664900e-02, 1.61538765e-01,
          2.30220966e-02, 7.25920349e-02, -1.67221442e-01,
          5.32835983e-02, -1.85187101e-01, -4.66379570e-03,
          2.92679686e-02, 1.93005502e-01, 1.90998875e-02, 1.02931023e-01,
          -1.76061198e-01, 3.59706320e-02, -1.86530650e-01,
          -1.55799808e-02, 1.98912341e-02, 1.67632565e-01,
          2.89692059e-02, 1.68157846e-01, -1.86419010e-01,
          2.02982146e-02, -1.92363620e-01, -3.56728360e-02,
          3.99652384e-02, 2.14213476e-01, 4.26270738e-02, 2.25826010e-01,
          -1.90448478e-01, 8.96429550e-03, -1.93805829e-01,
          -3.86058502e-02, 3.82784680e-02, 2.68284827e-01,
          3.51769999e-02, 2.11369753e-01, -1.84669331e-01,
          1.74553562e-02, -1.89915955e-01, -2.92430148e-02,
          2.38792170e-02, 1.68016732e-01, 2.73565650e-02, 1.66956842e-01,
          -1.80280179e-01, 2.90442780e-02, -1.84851423e-01,
          -1.32501675e-02, 1.78221241e-02, 1.00398406e-01,
          1.74475331e-02, 3.68817560e-02, -1.76512823e-01,
          4.45550606e-02, -1.85514465e-01, -1.45746267e-03,
          -1.14723161e-01, 5.76270044e-01, -9.31827426e-02,
          -9.10394490e-02, -9.26614255e-02, -9.20012072e-02,
          -9.26621556e-02 ]
      - [ -1.18774593e-01, -8.32337886e-02, 4.50267158e-02,
          5.52756363e-04, -5.98405786e-02, -5.32952836e-03,
          -5.39465714e-03, -5.06902859e-03, -5.05768657e-02,
          -5.39465714e-03, -5.39465714e-03, -4.80851391e-03,
          7.19888806e-02, -5.39465714e-03, -5.39465714e-03,
          -3.37572745e-03, 4.43622023e-02, -5.39465714e-03,
          -5.39465714e-03, 3.69377472e-02, 8.87332186e-02,
          8.65643546e-02, -5.39465714e-03, 3.71721610e-02,
          5.87343425e-02, 2.70409342e-02, -1.37707256e-02,
          -1.37296900e-01, 6.17266186e-02, -1.55640751e-01,
          1.20921154e-02, 3.03658284e-02, 7.50786439e-02, 2.21714899e-02,
          -1.82879362e-02, -1.33126825e-01, 6.38816580e-02,
          -1.55865461e-01, 1.01693990e-02, 2.47897543e-02,
          5.40674143e-02, 2.39712838e-02, 7.27889361e-03,
          -1.50193512e-01, 4.29309495e-02, -1.61160380e-01,
          -5.44236507e-03, 3.35108861e-02, 1.07442975e-01,
          4.69152629e-02, 1.37966409e-01, -1.63510397e-01,
          1.94640905e-02, -1.65057838e-01, -1.96500141e-02,
          7.57370070e-02, 2.80340552e-01, 6.64025173e-02, 2.28442147e-01,
          -1.62351638e-01, 1.87931303e-02, -1.64047450e-01,
          -2.03162581e-02, 5.67939952e-02, 2.31487289e-01,
          6.23759739e-02, 2.24629894e-01, -1.65999696e-01,
          1.19388094e-02, -1.63231239e-01, -1.70474108e-02,
          2.94533707e-02, 9.31754112e-02, 4.23259288e-02, 1.24344610e-01,
          -1.64960593e-01, 2.61779670e-02, -1.64021075e-01,
          -1.12629756e-02, 2.40980778e-02, 4.56029773e-02,
          2.62420215e-02, 5.54056559e-03, -1.50986686e-01,
          4.47345711e-02, -1.59384072e-01, 7.20421737e-03,
          -8.28983188e-02, 4.57527548e-01, -7.41167814e-02,
          -7.42898360e-02, -7.55604282e-02, -7.51013383e-02,
          -7.55609572e-02 ]
      - [ -6.82484591e-03, -6.72388896e-02, 1.79355741e-01,
          9.40248556e-03, 1.32948318e-02, 8.86026490e-03, 8.85782205e-03,
          8.87003914e-03, 9.63431131e-03, 8.85782205e-03, 8.85782205e-03,
          9.36487503e-03, 3.43429148e-02, 8.85782205e-03, 8.85782205e-03,
          3.56581546e-02, 3.40088755e-02, 8.85782205e-03, 8.85782205e-03,
          4.15525027e-02, -3.98502834e-02, -1.80217534e-01,
          -1.52218208e-01, 1.47119137e-02, 4.71645640e-03,
          1.92861389e-02, 9.79929604e-03, -4.36682403e-02,
          4.62129200e-03, -3.03050112e-02, 7.69956922e-03,
          1.18469670e-02, 1.07745221e-03, 1.81544349e-02, 6.62307907e-03,
          -4.27269787e-02, 7.63059687e-03, -3.02153025e-02,
          9.43193771e-03, 1.24171469e-02, 5.57764666e-03, 1.82721782e-02,
          1.06049823e-02, -4.39948849e-02, 6.22932333e-03,
          -3.03653385e-02, 9.18961409e-03, 1.37294624e-02,
          1.40088443e-02, 1.99590530e-02, 2.11080685e-02,
          -4.52180319e-02, 1.49884191e-03, -3.11261192e-02,
          6.06460730e-03, 1.69480741e-02, 2.36391760e-02, 2.16135308e-02,
          3.06406729e-02, -4.48457301e-02, -1.19261094e-03,
          -3.13951224e-02, 4.72866558e-03, 1.54684791e-02,
          2.71368679e-02, 2.11042929e-02, 3.17770690e-02,
          -4.51603755e-02, -2.17750994e-03, -3.12356241e-02,
          5.27399220e-03, 1.38750747e-02, 2.06332393e-02, 2.00965907e-02,
          2.66979411e-02, -4.51362729e-02, -1.77044002e-03,
          -3.09161991e-02, 5.99544821e-03, 1.31247146e-02,
          1.16399415e-02, 1.90343075e-02, 1.61200557e-02,
          -4.44328338e-02, 4.78009519e-04, -3.07943746e-02,
          6.39195880e-03, -1.23591293e-02, 4.04600166e-02,
          -4.85987589e-03, -5.67430584e-03, -5.83305862e-03,
          -5.90061257e-03, -5.83303580e-03 ]
      - [ -1.02759369e-01, -1.36451378e-01, 5.51193841e-02,
          2.87138671e-03, 1.74439140e-02, -1.87413557e-03,
          -1.85819773e-03, -1.77756022e-03, 3.87002714e-03,
          -1.85819773e-03, -1.85819773e-03, -1.71304715e-03,
          1.79158654e-02, -1.85819773e-03, -1.85819773e-03,
          -1.35823665e-03, 2.03838460e-02, -1.85819773e-03,
          -1.85819773e-03, 1.72156338e-02, 1.04682550e-01,
          1.56738665e-02, 3.76456091e-03, 8.09895396e-02,
          -4.96739820e-02, 1.16725557e-01, -8.73380061e-03,
          -1.58023745e-01, 5.08326367e-02, -8.77282843e-02,
          7.31370747e-02, 6.08304888e-02, -6.29602820e-02,
          1.10698856e-01, -5.01815323e-03, -1.62926674e-01,
          4.50081602e-02, -9.31496024e-02, 6.80653676e-02,
          5.78878112e-02, -5.16392663e-02, 1.10359833e-01,
          1.92641597e-02, -1.76692083e-01, 3.16304043e-02,
          -9.99609157e-02, 5.84751815e-02, 7.25435168e-02,
          4.53674281e-03, 1.21177033e-01, 7.48632699e-02,
          -1.75454468e-01, 2.35087276e-02, -1.04261316e-01,
          5.01373783e-02, 9.12195891e-02, 4.61073667e-02, 1.29168153e-01,
          9.60209295e-02, -1.75141454e-01, 2.64814310e-02,
          -1.02366433e-01, 5.21538854e-02, 6.31387383e-02,
          -1.94138642e-02, 1.12574719e-01, 5.01901917e-02,
          -1.73427060e-01, 2.74797715e-02, -9.86605287e-02,
          5.67480288e-02, 4.45697606e-02, -9.03432593e-02,
          1.00459263e-01, -7.88954645e-03, -1.68580815e-01,
          3.93663645e-02, -9.23622474e-02, 6.53865710e-02,
          5.50615378e-02, -7.86018074e-02, 1.04335710e-01,
          -2.66888365e-02, -1.56350732e-01, 5.00951372e-02,
          -8.78737792e-02, 7.26940334e-02, -3.71753275e-02,
          2.04307199e-01, -3.31501663e-02, -3.31404358e-02,
          -3.36807147e-02, -3.34796607e-02, -3.36809307e-02 ]
      - [ -8.99078771e-02, -3.71183366e-01, 1.11658581e-01,
          2.92016454e-02, 3.02425586e-02, 1.74221359e-02, 1.73641071e-02,
          1.76542383e-02, 2.78914999e-02, 1.73641071e-02, 1.73641071e-02,
          1.78863537e-02, 8.68160874e-02, 1.73641071e-02, 1.73641071e-02,
          1.91629492e-02, 6.62086606e-02, 1.73641071e-02, 1.73641071e-02,
          5.57222329e-02, 1.33107573e-01, -1.60266221e-01,
          -1.13165833e-01, 1.58279967e-02, 6.37430996e-02,
          9.15697252e-04, -1.90875530e-02, -1.16414897e-01,
          2.95996442e-02, -1.16516210e-01, 2.13139579e-02,
          1.56834088e-02, 9.13590863e-02, 1.30332529e-03,
          -6.01101853e-03, -1.16591267e-01, 2.75005698e-02,
          -1.18080802e-01, 1.78359766e-02, 1.17993318e-02,
          8.57644007e-02, 3.89342452e-03, 2.51810476e-02,
          -1.33799121e-01, 5.41765289e-03, -1.24624535e-01,
          2.45431834e-03, 1.83015149e-02, 1.25695616e-01, 2.43458916e-02,
          1.44037858e-01, -1.45011231e-01, -1.48772784e-02,
          -1.30869672e-01, -1.76032465e-02, 4.78044525e-02,
          2.55144328e-01, 3.80924530e-02, 2.14317709e-01,
          -1.41089916e-01, -1.28166601e-02, -1.32002294e-01,
          -2.18432900e-02, 3.72597761e-02, 2.28433400e-01,
          3.47682014e-02, 2.07146004e-01, -1.42709613e-01,
          -1.67495068e-02, -1.28715321e-01, -1.46973068e-02,
          1.52252829e-02, 1.15592562e-01, 1.80042833e-02, 1.20405838e-01,
          -1.41911015e-01, -4.37854603e-03, -1.24577597e-01,
          -2.01028120e-03, 1.03303064e-02, 7.24917874e-02,
          2.72187032e-03, 7.12525984e-03, -1.29157022e-01,
          1.33763179e-02, -1.17802285e-01, 1.97340082e-02,
          -7.38588646e-02, 4.06732738e-01, -6.61295354e-02,
          -6.59323558e-02, -6.70736060e-02, -6.66643381e-02,
          -6.70740753e-02 ]
      - [ 1.32556306e-03, 2.79279193e-03, 2.35718802e-01,
          -1.83449313e-01, -6.10543787e-03, -5.44783324e-02,
          -2.82432418e-03, -1.47438552e-02, -1.38775576e-02,
          -2.82432418e-03, -2.82432418e-03, -2.14248686e-03,
          7.27712139e-02, -2.82432418e-03, -2.82432418e-03,
          1.27689868e-01, 9.23921466e-02, -2.82432418e-03,
          -2.82432418e-03, -2.01440658e-02, 8.22343770e-03,
          -1.85182661e-01, -4.10198458e-02, 4.74173017e-03,
          1.93681498e-03, 4.11284622e-03, -1.37892400e-03,
          -4.18695956e-02, -3.07413680e-03, -2.08064727e-02,
          1.40439803e-02, 5.68362558e-03, 9.17440746e-03, 5.58270654e-03,
          -2.16680905e-03, -4.08685468e-02, 5.74507238e-03,
          -2.07954068e-02, 1.92413554e-02, 5.29018091e-03,
          9.33553558e-03, 6.05230499e-03, 5.11382148e-03,
          -4.28032689e-02, 4.29043174e-03, -2.22416148e-02,
          1.51900882e-02, 4.64747800e-03, 1.62988454e-02, 6.39447989e-03,
          2.07024626e-02, -4.61527258e-02, -1.14080440e-02,
          -2.35100500e-02, 5.11320727e-03, 3.21538234e-03,
          3.05239037e-02, 8.75321217e-03, 5.54733202e-02,
          -4.56741080e-02, -2.34166570e-02, -2.24346016e-02,
          3.26745864e-03, 1.01334834e-02, 7.66784623e-02, 9.19537339e-03,
          6.73631579e-02, -4.63303402e-02, -2.66792513e-02,
          -2.10330263e-02, 8.96939170e-03, 6.95264665e-03,
          5.79852574e-02, 7.93368369e-03, 5.50435260e-02,
          -4.57165167e-02, -2.62653995e-02, -2.05298550e-02,
          1.27239758e-02, 2.62763374e-03, 1.55237792e-02, 4.69230814e-03,
          2.15050410e-02, -4.39877771e-02, -1.92346927e-02,
          -2.10637599e-02, 1.21891927e-02, -4.45609204e-02,
          1.08009465e-01, -9.34477244e-03, -1.29960459e-02,
          -1.35766296e-02, -1.39546385e-02, -1.35764517e-02 ]
      - [ -3.26577909e-02, -2.76578695e-01, 2.22870350e-01,
          7.55552028e-04, -9.53487295e-04, -2.67825369e-03,
          -2.69516930e-03, -2.61059427e-03, 9.82751488e-04,
          -2.69516930e-03, -2.69516930e-03, -2.54293112e-03,
          1.75454114e-02, -2.69516930e-03, -2.69516930e-03,
          -2.17079534e-03, 1.55118862e-02, -2.69516930e-03,
          -2.69516930e-03, 1.06294854e-02, 5.86290881e-02,
          1.62592139e-02, -4.12499532e-03, 3.46098654e-02,
          1.30449375e-02, 4.29565385e-02, 1.41970897e-02,
          -1.11807331e-01, 2.27584802e-02, -8.16280693e-02,
          4.56329621e-02, 3.08626350e-02, 1.83859821e-02, 4.11137566e-02,
          1.32324295e-02, -1.10215820e-01, 2.45639551e-02,
          -8.10344443e-02, 4.74055819e-02, 2.73269638e-02,
          7.13723945e-03, 3.97151113e-02, 1.39934346e-02,
          -1.12447962e-01, 2.35250909e-02, -8.13967958e-02,
          4.68516313e-02, 2.78485678e-02, 1.39111951e-02, 4.38531078e-02,
          3.96856442e-02, -1.13593563e-01, 2.19072718e-02,
          -8.27405900e-02, 4.40583788e-02, 3.90297584e-02,
          4.80155684e-02, 4.90216576e-02, 5.87582178e-02,
          -1.13655739e-01, 2.28365511e-02, -8.22828636e-02,
          4.44824994e-02, 3.42406146e-02, 4.41119932e-02, 4.76148687e-02,
          5.76935634e-02, -1.14494763e-01, 1.92332789e-02,
          -8.07941332e-02, 4.61265296e-02, 2.77933609e-02,
          1.48526542e-02, 4.28835303e-02, 3.61859575e-02,
          -1.15702212e-01, 1.91143509e-02, -7.99623132e-02,
          4.68080267e-02, 2.73864362e-02, 9.29141603e-03, 4.07254361e-02,
          1.47162778e-02, -1.13392033e-01, 2.02011149e-02,
          -8.13926458e-02, 4.68397327e-02, -2.13432759e-02,
          1.11514471e-01, -1.79025922e-02, -1.78501457e-02,
          -1.81793384e-02, -1.80596560e-02, -1.81794763e-02 ]
      - [ -1.21817701e-01, -2.02227578e-01, 2.91274101e-01,
          -1.01975538e-02, -1.15981754e-02, 1.15549220e-02,
          1.15549220e-02, 1.12003163e-02, 1.13789830e-03, 1.15549220e-02,
          1.15549220e-02, -3.34311351e-02, -7.97946602e-02,
          1.15549220e-02, 1.15549220e-02, 2.94414144e-02, 3.64435166e-02,
          1.15549220e-02, 1.15549220e-02, 2.40057074e-02, 3.08804102e-02,
          -7.14594200e-02, 1.37034599e-02, 9.43421200e-03,
          2.37358343e-02, 1.20736985e-02, 2.77663209e-02,
          -4.39022779e-02, 4.67820978e-03, -3.87967676e-02,
          -2.39259358e-02, 7.54256500e-03, 1.52445836e-02,
          1.05741648e-02, 1.21752033e-02, -4.12790477e-02,
          1.63793378e-02, -3.71434502e-02, -1.38207357e-02,
          7.75375776e-03, 2.11269688e-02, 1.00777391e-02, 1.44562926e-02,
          -3.95238511e-02, 1.90199818e-02, -3.59381251e-02,
          -1.10177491e-02, 7.19210366e-03, 2.78464239e-02,
          9.41563305e-03, 2.19751131e-02, -4.16060016e-02,
          5.30741923e-03, -3.67186777e-02, -1.86674446e-02,
          7.38908257e-03, 3.47771756e-02, 1.10997641e-02, 4.61794250e-02,
          -4.34756614e-02, -8.29226617e-03, -3.76398377e-02,
          -2.36399435e-02, 1.09422831e-02, 7.32075572e-02,
          1.34649165e-02, 6.77140430e-02, -4.49473970e-02,
          -1.38986502e-02, -3.77015136e-02, -2.34804731e-02,
          1.28696980e-02, 8.25157613e-02, 1.44753614e-02, 7.26851672e-02,
          -4.57954966e-02, -1.61039289e-02, -3.78941037e-02,
          -2.39933282e-02, 9.92390513e-03, 5.16796410e-02,
          1.34470798e-02, 5.57135567e-02, -4.56953086e-02,
          -1.14632044e-02, -3.89019288e-02, -2.65968964e-02,
          -4.20452766e-02, 1.02161713e-01, -9.08055063e-03,
          -1.24152005e-02, -1.27441837e-02, -1.31325191e-02,
          -1.27439750e-02 ]
      - [ 5.41367847e-03, -1.74704254e-01, 2.05121741e-01,
          -2.62501448e-01, 1.01448596e-01, -7.34975412e-02,
          7.40950704e-02, 7.47859180e-02, 8.28266889e-02, 7.50041679e-02,
          7.50041679e-02, 7.53160343e-02, 6.81293234e-02, 7.50041679e-02,
          7.50041679e-02, 7.60783553e-02, 1.12285400e-02, 7.50041679e-02,
          7.50041679e-02, 6.90922141e-02, -1.58209074e-02,
          -7.15508759e-02, -6.95486188e-01, 1.67667456e-02,
          1.15815457e-02, 1.79364961e-02, -2.17627198e-03,
          -9.07493308e-02, -6.83616055e-03, -6.62052780e-02,
          3.40522826e-02, 1.80603601e-02, 3.84868830e-02, 1.83591302e-02,
          1.11732138e-02, -8.90709758e-02, -4.35602665e-03,
          -6.50140047e-02, 3.59673053e-02, 1.48661565e-02,
          3.51110771e-02, 2.11963058e-02, 3.64695191e-02,
          -9.88035724e-02, -1.65212285e-02, -6.76584914e-02,
          2.77001746e-02, 2.28480361e-02, 8.34017470e-02, 3.42244320e-02,
          1.11180618e-01, -1.05916560e-01, -3.04157753e-02,
          -7.32222199e-02, 1.12358984e-02, 4.01056856e-02,
          1.47906318e-01, 4.16059271e-02, 1.40448794e-01,
          -1.04432389e-01, -2.91520767e-02, -7.59985670e-02,
          3.29275592e-03, 2.97369789e-02, 1.06689483e-01, 3.86708304e-02,
          1.27425820e-01, -1.08153194e-01, -3.51125784e-02,
          -7.56543651e-02, 5.54835657e-03, 1.71343088e-02,
          4.46415506e-02, 2.74092741e-02, 7.02953786e-02,
          -1.07753493e-01, -2.75666360e-02, -7.32157603e-02,
          1.36260046e-02, 1.24448454e-02, 1.88451428e-02, 1.77259315e-02,
          4.49642027e-03, -9.77099761e-02, -1.35581745e-02,
          -6.95333183e-02, 2.61186846e-02, -4.41041440e-02,
          2.44323358e-01, -4.08706926e-02, -3.94029543e-02,
          -4.00631130e-02, -3.98190320e-02, -4.00633961e-02 ]
      - [ -2.16489255e-01, 3.42007950e-02, 2.74733037e-01,
          1.95272323e-02, 3.60825695e-02, 1.94805544e-02, 1.94805544e-02,
          1.94805544e-02, 2.07908396e-02, 1.94805544e-02, 1.94805544e-02,
          1.99706592e-02, 3.56600545e-02, 1.94805544e-02, 1.94805544e-02,
          4.64829057e-02, 2.70287227e-02, 1.94805544e-02, 1.94805544e-02,
          5.63846640e-02, -1.67797878e-01, -7.58546963e-02,
          -2.86044657e-01, 1.43165106e-03, 1.60175953e-02,
          3.48156341e-03, 2.42688823e-02, -1.94526054e-02,
          3.65148787e-03, -2.29102280e-02, -1.86401680e-02,
          -7.40599004e-04, 8.40292219e-03, 3.65934474e-03,
          2.61502173e-02, -1.93010326e-02, 5.56873530e-03,
          -2.28541084e-02, -1.72145199e-02, 1.30352925e-03,
          2.38580331e-02, 5.04275877e-03, 3.88162769e-02,
          -2.03382578e-02, 3.01143876e-03, -2.27555856e-02,
          -1.70285925e-02, 3.99373239e-03, 4.22399342e-02,
          6.09605527e-03, 4.71630730e-02, -2.09816229e-02,
          -9.00315819e-04, -2.25780196e-02, -1.80856455e-02,
          2.70961155e-03, 2.83773709e-02, 5.09831822e-03, 3.99254821e-02,
          -2.04558559e-02, -1.07322051e-03, -2.23686863e-02,
          -1.82026159e-02, -1.17813586e-03, 1.00997882e-02,
          3.15714907e-03, 2.73708962e-02, -1.97281763e-02,
          5.55344101e-04, -2.19148155e-02, -1.67068038e-02,
          7.59882794e-04, 2.37123072e-02, 2.79098377e-03, 2.52149329e-02,
          -1.91211142e-02, 1.24213158e-03, -2.20129192e-02,
          -1.68195721e-02, 2.90997676e-04, 1.91330258e-02,
          2.64793402e-03, 2.30355542e-02, -1.87130794e-02,
          3.21888877e-03, -2.27431115e-02, -1.86783876e-02,
          -9.34553891e-03, 2.40153801e-02, -2.65691755e-03,
          -2.89919623e-03, -3.00937030e-03, -3.09502543e-03,
          -3.00932722e-03 ]
      - [ -8.82071018e-01, -1.76910490e-01, 1.07195497e-01,
          2.33210757e-01, -2.59673029e-01, 6.31149635e-02,
          6.31149635e-02, 2.48154327e-01, -9.08306837e-01,
          6.31149635e-02, 6.31149635e-02, 1.19129412e-01, 4.19731319e-01,
          6.31149635e-02, 6.31149635e-02, 9.15591866e-02, 1.31875873e-01,
          6.31149635e-02, 6.31149635e-02, 1.03455693e-01, 1.41639397e-01,
          6.29731789e-02, 6.31149635e-02, 4.11736310e-01, 5.93880534e-01,
          3.96802038e-01, 1.46634251e-01, 1.76298082e-01, 2.79010415e-01,
          1.89304966e-02, 1.29145056e-01, 1.98624149e-01,
          -7.07940996e-01, 2.70704120e-01, -5.13753355e-01,
          6.01396151e-02, 2.10275337e-01, -3.68760899e-02,
          9.89362597e-02, -4.70700376e-02, -1.88914812e+00,
          2.10288376e-01, -9.30671632e-01, -1.57380819e-01,
          8.95934626e-02, -7.94945881e-02, 4.57442962e-02,
          -4.92023565e-02, -1.27480400e+00, 2.74690628e-01,
          -1.10617578e-01, -8.87995511e-02, 5.21050319e-02,
          -6.34312928e-02, 4.44578975e-02, 2.99559504e-01,
          9.65265632e-01, 4.28012609e-01, 7.57978082e-01, 3.99151370e-02,
          1.70136243e-01, 4.44968976e-03, 8.36748853e-02, 2.12477684e-01,
          -3.62733215e-01, 4.77066487e-01, 6.72652841e-01,
          -1.68933839e-01, -1.28934942e-02, -2.16695461e-02,
          6.93915412e-02, 1.01649702e-01, -1.23694861e+00,
          3.79665047e-01, -3.31574440e-01, -2.71607459e-01,
          4.11717147e-02, -8.00507367e-02, 2.17759162e-02,
          2.31935397e-01, -6.02517903e-01, 3.57153922e-01,
          -1.77179337e-01, -2.66241599e-02, 1.49900138e-01,
          -3.20651904e-02, 1.02156252e-01, -3.68379615e-02,
          1.06475532e+00, -1.54076457e-01, -2.35180050e-01,
          -2.11560026e-01, -2.15660974e-01, -2.11439803e-01 ]
      - [ -1.44700676e-01, -4.88405712e-02, 1.28076896e-01,
          9.27836914e-03, -1.89098902e-02, -1.81837268e-02,
          -1.81837268e-02, 5.84777165e-03, -1.78611670e-02,
          -1.81269534e-02, -1.81837268e-02, 9.47880447e-02,
          5.41090826e-03, 6.94523193e-03, -1.81837268e-02,
          3.72338295e-01, -1.20698987e-02, 1.32590026e-01,
          -1.81837268e-02, 2.74991244e-01, -2.44197875e-01,
          -2.72091061e-01, -1.62550062e-01, 4.00858708e-02,
          8.62149969e-02, 2.79296171e-02, 4.92956266e-02,
          -2.21771970e-02, -5.95260831e-03, -4.48721787e-03,
          -3.50208418e-03, 1.16519872e-02, 1.22191408e-03,
          2.14102156e-02, 2.90124882e-02, -1.33126788e-02,
          1.54867850e-03, -5.32857794e-03, -3.59498174e-03,
          -5.38817514e-03, -6.85955212e-02, 5.73333399e-03,
          -3.98638099e-02, -6.60699559e-04, 1.46296937e-02,
          -8.27310700e-03, -5.65465866e-03, 1.99522730e-03,
          -4.47958447e-02, 1.16520301e-02, -1.19906757e-02,
          -7.55386287e-03, 7.41609652e-03, -4.84085036e-03,
          -1.58692303e-03, 2.61454564e-02, 4.14190926e-02,
          1.60233621e-02, 5.05563011e-03, -1.25374813e-02,
          3.15271388e-03, -1.13438687e-03, 3.63825541e-03,
          8.15932918e-03, -1.87291652e-02, 1.38591267e-02,
          -1.07161410e-03, -6.49157772e-03, 6.78545982e-03,
          -2.88964668e-03, 2.09711638e-04, -2.72217137e-03,
          -6.45909011e-02, 6.33718679e-03, -4.22806591e-02,
          2.05119886e-03, 1.74700208e-02, -7.06675556e-03,
          -6.26620557e-03, 1.26984064e-03, -4.67711017e-02,
          1.74578261e-02, 7.94647913e-03, -8.96822754e-03,
          5.50285447e-03, -6.54526707e-03, -6.65670913e-03,
          4.33460140e-04, -3.47495591e-03, -2.27994882e-04,
          7.35303736e-04, 8.43098212e-04, 8.47926654e-04, 8.43192451e-04 ]
      - [ -2.85372555e-01, -6.25471771e-02, -4.84012067e-02,
          1.82643652e-01, -7.26694893e-03, -1.07800039e-02,
          -1.07800039e-02, 1.12166584e-01, -1.03834532e-02,
          -1.07774837e-02, -1.07800039e-02, 3.34926881e-02,
          -9.22822673e-03, -9.66479164e-03, -1.07800039e-02,
          6.34473264e-02, -1.03625134e-02, -4.08873055e-03,
          -1.07800039e-02, 1.53006077e-01, -9.88575630e-03,
          -1.19142486e-02, -1.09633338e-02, 1.23319827e-01,
          -2.37828895e-01, 2.49517873e-01, -2.47229170e-02,
          -1.71992153e-01, 6.65676966e-02, 1.49457678e-02,
          1.54713616e-01, 1.09863020e-01, -2.92994767e-01,
          2.44541004e-01, -4.18630354e-02, -1.77432418e-01,
          6.31756186e-02, 1.18490569e-02, 1.56528488e-01, 9.69933122e-02,
          -3.69984746e-01, 2.33748555e-01, -1.11745633e-01,
          -1.87803313e-01, 6.56076819e-02, 1.66305006e-02,
          1.61896020e-01, 1.00551672e-01, -3.16140860e-01,
          2.23256752e-01, -1.15385637e-01, -1.58598483e-01,
          6.75634071e-02, 1.54794762e-02, 1.60163924e-01, 1.21134542e-01,
          -2.46122345e-01, 2.26165444e-01, -8.95223692e-02,
          -1.40374482e-01, 7.57180899e-02, 2.05390379e-02,
          1.60601109e-01, 7.80279487e-02, -3.37783694e-01,
          2.09056631e-01, -1.28893957e-01, -1.47014648e-01,
          7.20098987e-02, 2.12746505e-02, 1.61354974e-01, 8.88305530e-02,
          -3.42633039e-01, 2.12423846e-01, -1.38388902e-01,
          -1.84427842e-01, 6.22519068e-02, 2.05865651e-02,
          1.60682231e-01, 7.89392814e-02, -3.53171736e-01,
          2.26649031e-01, -7.68851936e-02, -1.72218233e-01,
          6.29804507e-02, 1.22698145e-02, 1.55519649e-01,
          -2.13537235e-02, 1.77580342e-01, -3.01854815e-02,
          -3.15875150e-02, -3.14842574e-02, -3.14851925e-02,
          -3.14842574e-02 ]
      - [ 1.41675204e-01, -1.52768755e+00, -1.37409344e-01,
          1.75129741e-01, -2.62956202e-01, 4.95133065e-02,
          4.95133065e-02, 9.50882062e-02, -1.48604721e-01,
          4.95133065e-02, 4.95133065e-02, 7.45115504e-02, 8.66577253e-02,
          4.95133065e-02, 4.95133065e-02, 2.75966138e-01, 6.11927025e-02,
          4.95133065e-02, 4.95133065e-02, 7.96955884e-01, 4.94280905e-02,
          -6.67881072e-02, -9.26663261e-03, 5.94550837e-03,
          5.26157618e-01, -9.93288308e-02, 8.39849561e-02,
          2.68132448e-01, -7.83179328e-02, 1.76433608e-01,
          -8.50156620e-02, -6.20084349e-03, 1.27116174e-01,
          -1.10869639e-01, -1.20010816e-01, 1.87298968e-01,
          -1.32489294e-01, 1.26943201e-01, -1.08861119e-01,
          -7.63457045e-02, -2.44692370e-01, -1.22785412e-01,
          -3.57346982e-01, 1.01170182e-01, -1.73868641e-01,
          1.00113846e-01, -1.35724023e-01, 4.83734980e-02,
          3.25065374e-01, -7.46615678e-02, 2.10448038e-02,
          1.60067365e-01, -1.91704407e-01, 1.10634387e-01,
          -1.42478108e-01, 8.70819986e-02, 8.44492018e-01,
          -6.47534132e-02, 1.73709378e-01, 2.79065698e-01,
          -8.41590986e-02, 1.39677063e-01, -1.36842310e-01,
          -1.99620388e-02, 1.17283374e-01, -8.37664381e-02,
          3.29174548e-02, 1.79128170e-01, -1.74594849e-01,
          1.20760880e-01, -1.36793479e-01, -1.18966959e-01,
          -3.82391036e-01, -1.55433282e-01, -4.40981716e-01,
          9.13167372e-02, -1.81520790e-01, 1.12936631e-01,
          -1.28568739e-01, -4.33045663e-02, 1.87640786e-02,
          -1.22039147e-01, -7.92436898e-02, 1.68076530e-01,
          -1.63590431e-01, 1.40906319e-01, -9.69847515e-02,
          -1.22154094e-01, 1.34084666e+00, -2.40037769e-01,
          -2.44420841e-01, -2.44736299e-01, -2.44761303e-01,
          -2.44736299e-01 ]
      - [ -6.69826940e-02, 6.25212938e-02, 2.25014329e-01,
          -1.76547170e-01, -1.98091939e-02, -1.32708147e-01,
          -1.44156180e-02, -1.81679707e-02, -2.56898068e-02,
          -1.43676363e-02, -1.44156180e-02, 7.47492015e-02,
          -6.73273765e-03, 6.82186568e-03, -1.44156180e-02,
          3.13834906e-01, -1.43416580e-02, 1.13009289e-01,
          -1.44156180e-02, -2.74959534e-01, -4.02905010e-02,
          1.75992742e-01, -1.23684131e-01, 3.88913602e-03,
          6.36651069e-02, -1.58291347e-02, 2.39071026e-02,
          3.27727832e-02, -5.02973795e-03, 3.24423127e-02,
          1.49737503e-02, -1.72602721e-02, 1.76722440e-03,
          -2.03959718e-02, 9.22733918e-03, 3.93951386e-02,
          1.42718409e-03, 3.24633643e-02, 1.04986820e-02,
          -3.42725366e-02, -6.93131983e-02, -3.53684761e-02,
          -4.62008193e-02, 5.32834716e-02, 1.42150158e-02,
          3.21747065e-02, 7.49302935e-03, -3.67481634e-02,
          -6.99611604e-02, -3.53967287e-02, -3.37468460e-02,
          5.05140312e-02, 1.34186326e-02, 3.71123217e-02, 1.26562854e-02,
          -2.54010856e-02, -1.44276395e-02, -3.38558666e-02,
          -2.47429367e-02, 4.91263010e-02, 1.58682019e-02,
          4.05766256e-02, 1.78904217e-02, -2.54363548e-02,
          -3.66633348e-02, -3.17634307e-02, -2.55058222e-02,
          4.81769778e-02, 1.37587199e-02, 3.88279930e-02, 2.08693407e-02,
          -3.29225771e-02, -7.34376758e-02, -3.50003205e-02,
          -6.05840869e-02, 5.50006591e-02, 2.08848212e-02,
          3.28114815e-02, 1.81088243e-02, -2.71917451e-02,
          -5.11792228e-02, -2.45479029e-02, -1.71375405e-02,
          4.43989560e-02, 7.74038211e-03, 3.17458287e-02, 1.62384156e-02,
          2.00683391e-03, -2.21009739e-02, 3.61202797e-03,
          4.02792124e-03, 4.16318234e-03, 4.12773900e-03, 4.16331273e-03 ]
      - [ -2.56964564e-01, -1.04678445e-01, 1.44721821e-01,
          2.25481540e-01, -9.07130241e-02, -6.01348802e-02,
          -6.01348802e-02, 1.22536786e-01, -6.37127757e-02,
          -6.01129048e-02, -6.01348802e-02, 3.97497714e-02,
          -5.31165898e-02, -5.04080318e-02, -6.01348802e-02,
          1.78148612e-01, -6.18864670e-02, -1.77379092e-03,
          -6.01348802e-02, 3.35404456e-01, -1.30915001e-01,
          2.18066648e-01, -8.91537368e-02, 1.35053769e-01,
          -1.81948215e-01, 2.05034494e-01, -1.18720554e-01,
          -1.63903520e-01, -8.50177649e-03, 7.54616335e-02,
          2.47092724e-01, 1.13507733e-01, -2.93949127e-01,
          2.02377275e-01, -1.45682707e-01, -1.74742743e-01,
          -1.37052117e-02, 5.97360581e-02, 2.38768250e-01,
          8.90007839e-02, -4.07684028e-01, 1.95867628e-01,
          -2.18951181e-01, -1.87354460e-01, -7.49227917e-03,
          4.21247557e-02, 2.32916281e-01, 1.25764772e-01,
          -2.80358613e-01, 2.12787911e-01, -1.39277786e-01,
          -1.94844097e-01, -1.83996372e-02, 3.11672874e-02,
          2.26672485e-01, 1.57605127e-01, -1.36973992e-01,
          2.33341768e-01, -5.78390025e-02, -1.98612124e-01,
          -2.05544550e-02, 3.99023369e-02, 2.30606124e-01,
          1.34161785e-01, -2.33866379e-01, 2.20047638e-01,
          -1.07293613e-01, -1.95176601e-01, -1.78276002e-02,
          5.07128946e-02, 2.40630269e-01, 9.77346674e-02,
          -3.49801451e-01, 1.92606762e-01, -2.11926341e-01,
          -1.88173473e-01, -6.80459756e-03, 7.02037439e-02,
          2.53470629e-01, 8.90942737e-02, -3.48022252e-01,
          1.94334492e-01, -1.56124637e-01, -1.66042328e-01,
          -1.14893951e-02, 7.33777285e-02, 2.50879556e-01,
          -3.58474776e-02, 3.92920494e-01, -6.84261918e-02,
          -7.21055642e-02, -7.21789598e-02, -7.21834153e-02,
          -7.21789598e-02 ]
      - [ -1.32869631e-01, -1.77470565e-01, 2.57837981e-01,
          -5.54755144e-03, -2.55560949e-02, 1.64770312e-03,
          1.64770312e-03, 5.55290189e-03, -9.57523007e-03,
          1.67286792e-03, 1.64770312e-03, 2.66597811e-02,
          -1.00544065e-01, 1.27860457e-02, 1.64770312e-03,
          1.25740632e-01, -8.67802650e-02, 6.84777573e-02,
          1.64770312e-03, -1.97038785e-01, -4.37098816e-02,
          2.69239724e-01, 2.88585620e-03, 9.32965986e-03, 5.48263192e-02,
          7.18294352e-04, 3.15477923e-02, -1.62772078e-03,
          -1.12129664e-02, 1.54621778e-02, 6.19775662e-03,
          -3.53497220e-03, 9.86440759e-03, -3.09812627e-03,
          1.59107186e-02, 1.17339659e-03, -8.64488445e-03,
          1.53340520e-02, 6.95273466e-03, -1.44114597e-02,
          -3.25504132e-02, -1.20422300e-02, -2.12351717e-02,
          9.39643104e-03, -3.51950061e-04, 1.55980727e-02,
          6.92552561e-03, -1.31566972e-02, -2.49068458e-02,
          -1.34128639e-02, -1.86898001e-02, 9.37849842e-03,
          -6.90016255e-04, 1.85260605e-02, 8.17326084e-03,
          -1.21754250e-02, -4.61249379e-03, -1.35799861e-02,
          -1.51128406e-02, 1.16113573e-02, 1.75454328e-03,
          2.05798373e-02, 8.89098458e-03, -1.21839307e-02,
          -1.88335534e-02, -1.26270326e-02, -1.46404617e-02,
          1.03570614e-02, 1.18693359e-04, 1.89569034e-02, 6.24175975e-03,
          -1.29776932e-02, -2.65805069e-02, -1.23680476e-02,
          -2.26868540e-02, 1.10040745e-02, 1.76813779e-03,
          1.55975241e-02, 3.81392008e-03, -8.10776651e-03,
          -6.85668644e-03, -4.22541937e-03, 1.26555050e-02,
          4.76858020e-03, -5.64133376e-03, 1.50450878e-02,
          4.29701991e-03, -2.43945303e-03, 2.45332997e-02,
          -4.82994970e-03, -4.42215009e-03, -4.27873759e-03,
          -4.28427430e-03, -4.27871803e-03 ]
      - [ 1.05907828e-01, -1.37500316e-01, -9.25827995e-02,
          7.45732188e-02, 2.85762012e-01, -6.63485527e-01,
          2.03802437e-01, 2.14458779e-01, 2.29121298e-01, 2.03807712e-01,
          2.03802437e-01, 2.19345286e-01, 1.13384873e-01, 2.06138670e-01,
          2.03802437e-01, 2.89598495e-01, -8.93772021e-03,
          2.17819855e-01, 2.03802437e-01, 3.96339297e-01,
          -4.90952790e-01, -3.53379369e-01, -1.62462890e+00,
          4.41343486e-02, 1.17911138e-01, 2.72062868e-02, 2.18118131e-02,
          -1.91631578e-02, -8.41819420e-02, 5.53330295e-02,
          5.66338338e-02, 2.69367769e-02, -1.20821580e-01,
          7.44275283e-03, -1.36873841e-01, -4.65936027e-02,
          -9.99278799e-02, 5.43514676e-02, 6.83223382e-02,
          -3.69348400e-03, -3.41714680e-01, 6.46695634e-03,
          -2.43768558e-01, -5.93700223e-02, -9.80342552e-02,
          7.35932142e-02, 8.64991844e-02, 5.37809096e-02,
          -4.07424793e-02, 3.00122071e-02, -4.99338433e-02,
